%YAML:1.0
---
opencv_ml_svm:
   format: 3
   svmType: C_SVC
   kernel:
      type: LINEAR
   C: 2.6699999999999999e+00
   term_criteria: { epsilon:1.1920928955078125e-07, iterations:1000 }
   var_count: 1764
   class_count: 2
   class_labels: !!opencv-matrix
      rows: 2
      cols: 1
      dt: i
      data: [ -1, 1 ]
   sv_total: 1
   support_vectors:
      - [ 4.27611992e-02, -2.98765488e-02, -4.14861776e-02,
          -6.17064424e-02, -8.41072574e-02, -7.49340877e-02,
          -1.79362576e-02, -3.19707091e-03, 3.34646702e-02,
          1.00985304e-01, 2.07353011e-02, 5.68733970e-03,
          -7.32132569e-02, -5.36604933e-02, -6.21488970e-03,
          4.37441468e-02, -1.58227123e-02, 7.32135922e-02,
          1.38293449e-02, -4.42235731e-02, -3.52814086e-02,
          -3.13294083e-02, -7.50914440e-02, -7.42917806e-02,
          -6.56378418e-02, -4.15540598e-02, 3.98515314e-02,
          3.96078229e-02, 1.95830222e-02, 7.69700482e-02, 1.91819686e-02,
          8.25824961e-03, -3.63100693e-02, -7.79497437e-03,
          -1.67964585e-02, 8.56776088e-02, 9.75051820e-02,
          2.91551631e-02, 3.83786000e-02, -3.10181025e-02,
          -8.31479207e-02, -3.88705879e-02, 3.89836989e-02,
          -4.25017439e-02, 5.98928891e-02, 4.57977243e-02,
          1.70553774e-02, 2.80984007e-02, -2.87155248e-02,
          -4.14099544e-02, -4.04693075e-02, 4.06891946e-03,
          -6.63690418e-02, 7.67936930e-03, 4.34354283e-02,
          3.16486880e-02, 8.69635642e-02, 3.41410078e-02,
          -2.40237862e-02, -6.07631654e-02, -3.06356400e-02,
          -3.87864597e-02, 6.21739030e-02, 4.15338129e-02,
          2.24050935e-04, -7.88931176e-03, 3.46437618e-02,
          -4.53119092e-02, -2.84472387e-02, -5.25770113e-02,
          -6.13110662e-02, -1.98279396e-02, 3.19075361e-02,
          1.64669361e-02, 1.71694774e-02, -1.66264512e-02,
          1.86585810e-03, 1.30796200e-02, 4.23864834e-02,
          -3.93036157e-02, 2.52381396e-02, -2.21397206e-02,
          -1.03283301e-02, -1.30496603e-02, -1.92783773e-02,
          3.85308042e-02, 4.42994013e-02, 5.27769364e-02,
          -2.32373867e-02, -9.67135094e-03, 3.25100832e-02,
          1.69549603e-03, 1.31782126e-02, 3.12048700e-02, 1.62967071e-02,
          1.99121367e-02, 1.86825562e-02, -1.29818190e-02,
          -9.66761913e-03, -6.69177696e-02, -5.01894243e-02,
          -2.55954657e-02, 2.21215002e-02, -2.69664754e-03,
          -2.67733969e-02, -1.73831172e-02, -1.93588398e-02,
          -8.04505348e-02, -2.07766630e-02, -2.96173021e-02,
          2.91776899e-02, 7.67991645e-03, 5.81407174e-02, 7.70750046e-02,
          1.71907414e-02, -2.13595312e-02, -2.29164995e-02,
          -6.36264458e-02, -6.50316700e-02, 1.51518751e-02,
          6.16735630e-02, 8.89630690e-02, 1.31947380e-02, 1.18364589e-02,
          -1.07170358e-01, -9.08538103e-02, -6.65955767e-02,
          -6.87875822e-02, 1.40369013e-02, 3.94544713e-02,
          3.82554084e-02, -2.89744185e-03, 8.46068375e-03,
          -2.05406500e-03, -6.10443465e-02, -6.21028654e-02,
          -5.87689020e-02, -1.48801878e-02, 5.38562201e-02,
          7.16645718e-02, -3.14059369e-02, -6.87235296e-02,
          -3.16227190e-02, -2.21502483e-02, -2.65047308e-02,
          -5.79098538e-02, 2.49452069e-02, 3.27913873e-02,
          7.87601322e-02, -2.39350460e-02, -2.54152529e-02,
          -1.00816943e-01, -4.85059917e-02, 7.05783740e-02,
          -8.87833908e-03, 3.37498896e-02, -3.74066308e-02,
          -1.49621302e-02, -3.07850204e-02, -4.44112122e-02,
          1.94124151e-02, 2.71691252e-02, 2.75119599e-02,
          -7.99785834e-03, -5.30721247e-03, 3.87669337e-04,
          6.03281260e-02, -4.00011204e-02, -5.87508529e-02,
          -3.35968584e-02, 1.05247367e-02, 7.50721917e-02,
          8.01265463e-02, 6.37730658e-02, -4.00778614e-02,
          -3.84531030e-03, -8.27383026e-02, -6.17987700e-02,
          -4.07653209e-03, 3.63098048e-02, 8.79182592e-02,
          1.50882956e-02, 3.24906558e-02, -2.10776795e-02,
          -6.15129843e-02, -3.25525589e-02, -2.56589893e-02,
          3.40735801e-02, 2.87081953e-02, 7.93089047e-02, 2.49678195e-02,
          -2.05061156e-02, -3.81853431e-02, -4.00858335e-02,
          -5.78489602e-02, 1.21747702e-03, 2.56158412e-02,
          3.93880978e-02, 1.06896415e-01, 6.82554990e-02, 2.40474790e-02,
          -9.56583302e-03, -5.95691055e-02, -6.86238036e-02,
          -1.02198295e-01, -1.29302172e-02, 5.56759611e-02,
          8.58476534e-02, 4.32508998e-02, -2.32423637e-02,
          -3.34735177e-02, 1.70566514e-02, -5.13031781e-02,
          -5.88462241e-02, -8.60742293e-03, 7.13375434e-02,
          5.46606518e-02, 5.64936846e-02, 6.58687055e-02, 2.88525373e-02,
          -1.17634116e-02, -5.12066782e-02, -3.20132039e-02,
          2.72004791e-02, 4.98276800e-02, 1.87803041e-02, 4.64687198e-02,
          7.34146759e-02, -2.73180055e-03, 1.39130624e-02,
          -4.02225144e-02, -6.86544180e-02, -3.91574278e-02,
          1.67551991e-02, 8.76452848e-02, 9.67937484e-02, 5.75991534e-02,
          -1.80038065e-02, 5.18451817e-02, -3.53272893e-02,
          -3.28954048e-02, 2.28074081e-02, 6.70357347e-02,
          2.84718890e-02, 7.72285983e-02, 6.03128597e-02,
          -1.86390262e-02, 3.53750736e-02, -7.08044544e-02,
          -3.98205854e-02, -5.13833053e-02, 1.74155948e-03,
          5.82506172e-02, -3.99777330e-02, -3.38780656e-02,
          -3.82068679e-02, -4.59526107e-03, -8.24645385e-02,
          -6.70897737e-02, -5.66711389e-02, 5.06929345e-02,
          5.89935444e-02, 4.15138900e-02, 1.20029956e-01, 7.54345134e-02,
          2.87972372e-02, -3.44151445e-02, 1.46369659e-03,
          -2.20628176e-02, 6.76400363e-02, 1.30225290e-02,
          -6.25071675e-03, -2.35145278e-02, 6.14431407e-03,
          3.50973569e-02, -5.32316864e-02, -1.06726671e-02,
          1.29449852e-02, 1.88485328e-02, 8.20864215e-02, 4.42905314e-02,
          7.11748898e-02, 1.07589565e-01, 3.41179632e-02,
          -1.25428960e-02, -2.61411387e-02, 2.97861639e-02,
          7.44806007e-02, 4.74220216e-02, -4.20020195e-03,
          6.65475801e-02, 9.41082761e-02, 6.10336568e-03,
          -7.86485821e-02, -4.43310328e-02, -5.72399050e-02,
          3.67276557e-02, 7.49808848e-02, -7.39882886e-02,
          -4.76191863e-02, 4.94044647e-02, 1.57285891e-02,
          -1.18657900e-02, -2.49730330e-02, -3.60857844e-02,
          1.39784310e-02, 6.62967041e-02, -4.78950441e-02,
          -3.33309025e-02, 1.10881418e-01, 9.28494111e-02,
          -2.79744696e-02, -4.45002094e-02, -4.12971973e-02,
          4.91636395e-02, 5.41955642e-02, -3.23201641e-02,
          8.71086959e-03, 5.02363145e-02, 1.91740543e-02,
          -3.15294154e-02, -1.59280691e-02, -5.74250482e-02,
          1.84847899e-02, 5.47988992e-03, -8.52952972e-02,
          -3.41403447e-02, 1.74695030e-02, -6.64998498e-03,
          1.02255801e-02, -5.23377385e-04, -4.73587103e-02,
          -1.27587169e-02, -5.91719970e-02, -5.89526594e-02,
          -5.37142418e-02, 5.36183715e-02, 3.10317557e-02,
          -1.91532709e-02, -4.82724234e-02, -7.46223405e-02,
          -8.27981606e-02, 6.94782138e-02, -2.21094154e-02,
          -8.54502246e-03, 5.19008450e-02, -1.09256422e-02,
          -1.76258683e-02, -2.85536498e-02, -3.08604166e-02,
          4.58739698e-02, 5.36877923e-02, 2.40431782e-02, 2.30215602e-02,
          3.06398161e-02, -2.23010294e-02, -4.73136678e-02,
          -7.94903487e-02, -3.95411402e-02, 1.00883851e-02,
          -5.08660153e-02, -1.32942759e-02, 2.00308543e-02,
          5.08563332e-02, 4.32745852e-02, -4.00955714e-02,
          -5.91441505e-02, -4.55422439e-02, -6.69532418e-02,
          -2.15756614e-02, -3.72689664e-02, 3.50350561e-03,
          2.24934928e-02, 3.31466123e-02, -2.78132521e-02,
          -5.04775941e-02, -5.92359714e-02, -4.29216027e-02,
          4.86569144e-02, 3.03146690e-02, 4.66792174e-02, 1.46474782e-02,
          1.57295279e-02, -5.62026678e-03, -4.60790657e-02,
          -2.12862268e-02, 5.41118858e-03, 1.85960461e-03,
          -1.30452716e-03, 5.12898043e-02, 2.47962680e-02,
          1.92259513e-02, -9.77689400e-03, -4.76178154e-02,
          -5.63799478e-02, -6.91116899e-02, 1.86528191e-02,
          -2.00380292e-02, -4.33953032e-02, -5.99811552e-03,
          9.51214787e-03, -3.38751115e-02, -8.46502036e-02,
          -5.44939488e-02, -1.12153674e-02, 8.86342153e-02,
          7.51547217e-02, 4.45101447e-02, 3.26004550e-02, 8.62477534e-03,
          -5.78865856e-02, -6.31139055e-02, -6.28634021e-02,
          4.82542347e-03, -1.82207034e-03, 1.73911229e-02,
          2.48949826e-02, 6.33607283e-02, 3.82929444e-02,
          -2.24853419e-02, -7.73670301e-02, -7.10525066e-02,
          -7.29254410e-02, 2.66084056e-02, 7.42687955e-02,
          4.00723256e-02, 9.24476683e-02, 8.15657154e-02,
          -4.02259529e-02, -1.02944352e-01, -4.47072759e-02,
          -2.44366843e-02, 8.37030411e-02, 1.99490581e-02,
          1.59840826e-02, 9.51254442e-02, -6.91573322e-03,
          -3.05792578e-02, -8.85020271e-02, -8.06270018e-02,
          2.37868819e-03, 4.25593182e-02, 8.75558704e-03, 2.86712516e-02,
          3.55294608e-02, -2.72393469e-02, -9.31584463e-02,
          -1.32921740e-01, -3.03848237e-02, 7.10873073e-03,
          2.83045843e-02, -1.12124300e-02, 2.90926057e-03,
          1.63994193e-01, 6.10280372e-02, 2.01184358e-02,
          -5.55996597e-02, -4.47469205e-02, -2.22533923e-02,
          -2.84752324e-02, -1.59990545e-02, -6.60984358e-03,
          9.47160721e-02, 3.57714370e-02, -7.78112188e-02,
          -8.09678733e-02, -2.53473166e-02, -4.93974648e-02,
          6.92409053e-02, 6.40268102e-02, 6.87750652e-02,
          -1.35346260e-02, -2.43657082e-03, -5.11728749e-02,
          -7.68878907e-02, -1.37631716e-02, 5.14275432e-02,
          7.01573566e-02, 4.52462174e-02, 3.85966413e-02, 2.66437493e-02,
          2.21477542e-02, -5.68582751e-02, -7.51763806e-02,
          -8.67678970e-02, 2.87359152e-02, 1.00619867e-02,
          3.54496650e-02, 9.43970829e-02, 6.28960356e-02, 2.05077846e-02,
          -3.76741402e-02, -1.04638506e-02, -2.20232606e-02,
          3.28424876e-03, -4.36233878e-02, 2.17770468e-02,
          7.81011209e-02, 5.09323776e-02, 2.00291071e-02,
          -3.63333970e-02, -8.59352425e-02, -1.03737161e-01,
          -7.21243843e-02, 4.57745269e-02, 3.03501282e-02,
          3.26698646e-02, 2.49381410e-03, 6.37181848e-02,
          -3.85972969e-02, -5.35035320e-02, 4.37580831e-02,
          5.76669760e-02, 1.33386075e-01, 2.67525762e-02, 2.68152170e-02,
          4.99411076e-02, 1.08413674e-01, 1.62317008e-02,
          -3.21773440e-02, 8.80063325e-02, 1.32105991e-01,
          5.04554957e-02, -2.80418433e-02, -2.59755589e-02,
          -6.24702610e-02, -2.75686593e-03, -7.25735202e-02,
          -6.90413117e-02, -2.67235991e-02, 4.19871472e-02,
          6.18307516e-02, -8.14838186e-02, -8.87430739e-03,
          -2.93101612e-02, 2.36187708e-02, -4.09785099e-02,
          -3.89390513e-02, 4.04252820e-02, 7.25877956e-02,
          7.01122209e-02, -2.17568595e-02, -1.84518527e-02,
          4.36284132e-02, 6.88245595e-02, -3.54153998e-02,
          -7.76723325e-02, -1.12919668e-02, 6.14090264e-02,
          8.14174190e-02, 2.27520391e-02, 3.55655029e-02, 6.69233575e-02,
          4.45897877e-02, -3.50031331e-02, 8.02925602e-03,
          -3.12911756e-02, 5.22453375e-02, -4.37526684e-03,
          -3.61583009e-02, -9.83155426e-03, -1.02980323e-02,
          4.47920263e-02, -7.37532824e-02, -5.02067134e-02,
          -4.62688208e-02, 2.34500375e-02, 1.65884849e-02,
          3.41431201e-02, 4.96137701e-03, 6.25216067e-02, 2.50758193e-02,
          -3.98460627e-02, -6.59700334e-02, -4.82284091e-02,
          2.66567827e-03, 8.03348273e-02, 2.17089672e-02,
          -6.49736635e-03, 6.90803826e-02, -4.70123589e-02,
          -5.64756542e-02, -5.97797558e-02, -4.37788107e-02,
          5.96839450e-02, 5.34909666e-02, 5.02359010e-02, 2.13129707e-02,
          -3.82744754e-03, -1.15157999e-01, -1.08208194e-01,
          -1.15605250e-01, -4.41838130e-02, 5.01463488e-02,
          8.61141756e-02, 1.21377707e-02, -2.96565425e-02,
          3.83481979e-02, -4.30947617e-02, -7.94320107e-02,
          -9.25520994e-03, -9.35387686e-02, 3.23883072e-02,
          8.07739422e-02, 3.26283239e-02, -3.74913663e-02,
          -4.81327847e-02, -1.03554353e-01, -9.83306095e-02,
          -2.33607534e-02, -4.82523777e-02, 8.05399194e-02,
          4.66860011e-02, 2.85645574e-02, 9.11270175e-03,
          -2.95928922e-02, -5.70853800e-02, -5.25758117e-02,
          -6.03549071e-02, -4.57013696e-02, 5.56199886e-02,
          2.86383983e-02, -1.57288667e-02, -1.53729906e-02,
          -1.74584500e-02, -2.14750208e-02, -2.29382683e-02,
          -7.85297900e-02, -3.02719250e-02, 1.04110800e-02,
          1.14379458e-01, 1.53849022e-02, -5.10944612e-02,
          -9.54498053e-02, -1.07961483e-01, -1.03520818e-01,
          -3.70045416e-02, -7.27888476e-03, 1.14459418e-01,
          5.94450049e-02, -2.14437395e-02, -8.29235986e-02,
          -8.39399695e-02, -1.17582165e-01, -6.03965260e-02,
          -4.40056138e-02, 5.70643554e-03, 1.02252156e-01,
          3.75409946e-02, 8.92938860e-03, 2.62436457e-02, 5.63959926e-02,
          -1.04230922e-02, -5.19435368e-02, -1.23277254e-01,
          -5.63322417e-02, -6.09377120e-03, 6.30893633e-02,
          5.71386740e-02, 4.86204475e-02, 8.98500755e-02, 2.44771205e-02,
          -3.25918123e-02, -5.15268184e-02, -2.90198158e-02,
          1.04424329e-02, 8.79966244e-02, 1.15889567e-03,
          -5.63284010e-02, -6.59979731e-02, -9.01920199e-02,
          -5.48148938e-02, -4.54118773e-02, 2.16763243e-02,
          1.08823918e-01, 4.70242053e-02, 4.68356945e-02, 1.63636822e-02,
          5.26717631e-03, -5.24290726e-02, -5.52213639e-02,
          -5.19795008e-02, -4.26558107e-02, 2.02873033e-02,
          1.63296107e-02, -2.70068739e-03, 2.48759091e-02,
          1.18216150e-01, 2.30382364e-02, -3.16793807e-02,
          -4.91661429e-02, 8.08450300e-03, 2.98204049e-02,
          -4.67740893e-02, -2.70646811e-02, 2.03348789e-02,
          7.77569488e-02, 1.56941153e-02, -8.93813148e-02,
          -9.59414616e-02, -1.76921245e-02, -4.52749580e-02,
          -7.18806731e-03, 6.24901336e-03, 2.39767004e-02,
          6.90480024e-02, -6.18518069e-02, -7.21574575e-02,
          -7.60085434e-02, -9.76882409e-03, -3.05966455e-02,
          -6.37639239e-02, -4.01831610e-04, -7.61541957e-03,
          1.51972705e-02, 3.01024620e-03, -5.16665876e-02,
          -4.94986363e-02, 7.37899356e-03, -4.76080216e-02,
          -3.94667592e-03, 1.47157013e-02, 9.19350982e-02,
          1.12974338e-01, 7.93792158e-02, -5.91957532e-02,
          -5.51689230e-02, -3.61081474e-02, -1.60290487e-02,
          -2.89260000e-02, 3.60396877e-02, 7.85791576e-02,
          2.10346095e-02, 2.25209966e-02, -7.10865185e-02,
          -8.57947692e-02, -9.64185447e-02, -5.96901551e-02,
          -2.53965426e-02, 8.06042645e-03, 8.15984085e-02,
          4.73487936e-02, 7.00949207e-02, -3.00677773e-02,
          -6.11247011e-02, -3.74661423e-02, -1.11071160e-02,
          -2.14507920e-04, -2.31655501e-02, 8.40865192e-04,
          -6.34640381e-02, -1.19774286e-02, -5.14104962e-02,
          -9.19014290e-02, -1.09617755e-01, -2.83919666e-02,
          4.94030267e-02, -3.48106623e-02, -4.36256081e-02,
          -7.52010569e-02, 1.38861528e-02, -6.46469444e-02,
          -2.28867140e-02, -4.00035754e-02, 3.06099355e-02,
          6.42787665e-02, -5.88967986e-02, 2.57457281e-03,
          -9.04549670e-04, 6.72859028e-02, -6.41685203e-02,
          -2.41570678e-02, -9.14831739e-03, 3.83699872e-02,
          4.50051874e-02, -4.37483080e-02, -9.19886455e-02,
          -7.08361268e-02, 7.61713758e-02, -5.90779521e-02,
          1.54584721e-02, -8.07215832e-03, 3.56559716e-02,
          1.10535711e-01, 5.20757139e-02, -4.52409452e-03,
          1.03011290e-02, 9.50361639e-02, -5.12453988e-02,
          -1.06003424e-02, -1.47874271e-02, 6.53023273e-02,
          1.35620292e-02, -5.02540693e-02, -7.22695561e-03,
          7.85379857e-03, 3.58185126e-03, -1.10025696e-01,
          -5.10944389e-02, -1.92500167e-02, 3.18993255e-02,
          2.42259651e-02, 9.03778337e-03, -2.81383544e-02,
          6.04360327e-02, 5.11592776e-02, -3.72736081e-02,
          -8.66569951e-03, -2.44786050e-02, 3.30922008e-02,
          8.89349431e-02, -1.11232735e-02, -8.84708464e-02,
          -3.75415236e-02, -2.20207665e-02, -6.31091669e-02,
          -9.84887034e-03, 4.16898876e-02, 8.32919031e-02,
          1.25706702e-01, 2.14100145e-02, -3.05191707e-02,
          5.98133262e-03, -2.87031941e-02, -2.60602944e-02,
          7.92109817e-02, 3.11975460e-02, 1.32087842e-01, 7.35421106e-02,
          1.93171501e-02, -2.83702053e-02, -1.97447427e-02,
          1.55469973e-03, -3.34520452e-02, -6.12039817e-03,
          -7.26612210e-02, 4.01605442e-02, 6.25712126e-02,
          2.13625003e-03, -3.22769582e-02, -5.55788130e-02,
          -4.76078615e-02, -2.40994003e-02, -1.94254685e-02,
          -6.38495758e-02, 8.53441134e-02, 1.12575375e-01,
          3.69728468e-02, -2.87667792e-02, -6.92143440e-02,
          -5.07454649e-02, -2.62576602e-02, 8.78565572e-03,
          -5.63679673e-02, 9.30381864e-02, 4.97073568e-02,
          1.82118062e-02, -9.18532908e-02, -9.20416787e-02,
          -1.04859300e-01, -3.20423767e-02, -2.95282770e-02,
          -4.03844118e-02, 7.53875226e-02, 6.23566136e-02,
          -5.54508232e-02, -3.77965309e-02, -6.21461235e-02,
          -1.34658888e-01, -3.79174724e-02, 9.32231359e-03,
          1.56521108e-02, 1.13273762e-01, 3.86401303e-02,
          -3.25795151e-02, -4.88665812e-02, -6.55680522e-02,
          -1.28206223e-01, -7.61272237e-02, 1.07306549e-02,
          4.87308353e-02, 8.64070132e-02, 1.81350876e-02,
          -1.62311587e-02, -4.44885381e-02, -1.31016895e-01,
          -1.66145742e-01, 1.06103020e-02, 1.62392594e-02,
          2.11366992e-02, 8.10573027e-02, 3.23695829e-03, 1.95838381e-02,
          -1.96450744e-02, -4.70903516e-02, -9.36269164e-02,
          -4.11932543e-02, -8.26977007e-03, 6.76294509e-03,
          5.02182655e-02, 3.25469859e-02, 6.11147610e-03,
          -5.30464239e-02, -7.00915381e-02, -9.47900116e-02,
          -6.90405816e-02, 1.97742693e-02, 3.68099771e-02,
          9.79353189e-02, -1.13513768e-02, -1.34157892e-02,
          -3.40552330e-02, -2.44927909e-02, -3.57030332e-02,
          -3.12734134e-02, -1.53246149e-02, -1.60787869e-02,
          -3.35018337e-02, 1.94816105e-02, 1.24729574e-02,
          -4.31090109e-02, 1.33873464e-03, -4.21184078e-02,
          -4.07714695e-02, -1.08430525e-02, -4.85776179e-03,
          6.84454888e-02, -2.65663676e-02, -1.18430424e-02,
          -6.06840663e-02, -4.20975611e-02, -2.94661839e-02,
          3.69500443e-02, 3.02183293e-02, 5.57974912e-02,
          -1.46246273e-02, -3.75408605e-02, -2.45430861e-02,
          6.14973437e-03, 3.84021960e-02, -2.26186886e-02,
          -3.23614106e-02, -2.39702817e-02, -1.67290065e-02,
          -1.07812934e-01, -5.80883771e-02, -1.61408093e-02,
          -7.45658353e-02, -7.56339543e-03, 1.92104038e-02,
          4.50394265e-02, 2.09193211e-03, -3.30821201e-02,
          -9.08919275e-02, -4.69902530e-02, -5.42526096e-02,
          -2.96947341e-02, 1.64606627e-02, 3.92821524e-03,
          6.32183403e-02, 6.78400323e-02, 2.10674834e-02,
          -3.66494320e-02, -8.09364021e-02, -2.94972863e-02,
          -6.29298612e-02, -1.06279664e-02, -1.01721077e-03,
          8.30178037e-02, 2.66605746e-02, 3.29339057e-02,
          -1.01416789e-01, 5.91427227e-03, -1.51705174e-02,
          -8.41766037e-03, 6.02096766e-02, 1.83231443e-01,
          6.41035214e-02, 6.03411021e-03, -8.55021924e-02,
          -5.99929458e-03, 1.83495916e-02, -3.64095271e-02,
          -3.24993581e-02, -7.15388805e-02, 9.49137658e-02,
          -1.32764392e-02, -7.11845681e-02, -1.17488578e-01,
          2.17899634e-03, -6.74520433e-03, -3.01168635e-02,
          -8.23438540e-02, -1.13927722e-02, 1.86188400e-01,
          1.07847445e-01, 2.80906400e-03, 6.56363694e-03,
          -3.87691371e-02, 6.23419462e-03, -6.97629601e-02,
          -2.05548313e-02, -4.36354540e-02, 1.13582522e-01,
          2.42352579e-02, -4.45883609e-02, -1.06372364e-01,
          -3.48408967e-02, 9.41421720e-04, -2.31331270e-02,
          -1.14260642e-02, -4.03883085e-02, 7.80476555e-02,
          -4.17504422e-02, -2.85675004e-02, -6.40609190e-02,
          -2.52695940e-02, 3.94940265e-02, 7.38457683e-03,
          -6.05565915e-03, 4.35265899e-02, 7.82728940e-02,
          -5.31685911e-02, 1.21827954e-02, -7.98004642e-02,
          -1.03822891e-02, 3.88281383e-02, -6.87175570e-03,
          -4.80705611e-02, -1.35278143e-03, 8.58222023e-02,
          -3.19839008e-02, -2.60528959e-02, -7.22585917e-02,
          3.86750214e-02, 4.01498191e-02, -3.89026962e-02,
          3.47059257e-02, 6.09695725e-02, 5.96510470e-02,
          -4.93810140e-02, -1.16328308e-02, -1.03001222e-01,
          1.35141406e-02, 2.92053856e-02, -3.95526960e-02,
          -7.86961243e-02, -4.08798046e-02, -4.09608334e-02,
          -1.74479540e-02, -7.21635763e-03, -1.83228485e-03,
          1.75368935e-02, 1.13963790e-01, -2.38847695e-02,
          -6.73406646e-02, -6.26111180e-02, -6.28633499e-02,
          8.48257262e-03, 4.50867340e-02, 2.47426610e-02, 8.13936070e-02,
          1.15937425e-03, -5.89929372e-02, -9.20430571e-02,
          -3.43902148e-02, -2.75312085e-02, -2.07106266e-02,
          1.18758474e-02, -9.52706262e-02, -1.28486538e-02,
          1.93957742e-02, -3.56770083e-02, -9.57405269e-02,
          -3.67352627e-02, -2.11165622e-02, 3.32838595e-02,
          5.63876762e-04, 3.70887630e-02, 2.31413003e-02, 9.19919908e-02,
          -7.20764557e-03, -6.01053089e-02, -1.13270253e-01,
          -1.43393844e-01, -4.59192768e-02, 9.26036667e-03,
          -2.63088755e-02, 7.06542730e-02, 5.42793870e-02,
          4.07782756e-02, -3.35637778e-02, -1.03036471e-01,
          -1.68066055e-01, -7.08882371e-03, -2.69668754e-02,
          -1.04069430e-02, 3.06814276e-02, 6.24257065e-02,
          2.52341793e-04, -5.19875437e-02, -5.90159073e-02,
          -1.06028154e-01, -2.86208522e-02, 4.40686475e-03,
          -1.07308943e-02, 4.44512069e-02, 2.76238080e-02,
          2.35848930e-02, 2.26956028e-02, -7.26275891e-02,
          -9.52953920e-02, -2.87124943e-02, 9.64096654e-03,
          -4.09905836e-02, 4.03903536e-02, 2.87045855e-02,
          -4.24509831e-02, -4.60191704e-02, -1.07113957e-01,
          -1.76143706e-01, -2.16376521e-02, 3.44517687e-03,
          3.06633227e-02, 4.50346395e-02, -8.88372026e-03,
          -5.54830506e-02, -3.42810042e-02, -4.21041436e-02,
          -5.88613264e-02, 8.47666711e-03, -4.16526804e-03,
          -3.50497440e-02, 2.01096274e-02, 5.84803475e-03,
          -4.00061049e-02, -2.25964934e-02, -6.74342439e-02,
          -1.04243018e-01, -1.02085751e-02, 1.72522534e-02,
          3.35479751e-02, 5.25080673e-02, -4.91843633e-02,
          -9.83474031e-02, -2.73485109e-02, -3.51775810e-02,
          -1.84066463e-02, 2.30002385e-02, 2.07205545e-02,
          -3.61968800e-02, -2.40235552e-02, 1.63562018e-02,
          -2.06835587e-02, -4.63162772e-02, 1.15812914e-02,
          -2.74919556e-03, 4.77849171e-02, 2.70456658e-03,
          -2.11378224e-02, 4.37032692e-02, 3.31007503e-03,
          -6.81336820e-02, -1.31797373e-01, -3.27516198e-02,
          -4.33443226e-02, 7.72885829e-02, 2.29524355e-02,
          4.30841334e-02, 1.79795343e-02, -1.73372645e-02,
          -6.66773468e-02, -7.00496361e-02, -5.06290980e-03,
          -6.66787243e-03, 2.31127422e-02, 3.93064171e-02,
          -3.15656699e-02, -3.83223593e-02, -3.48186754e-02,
          -1.12570316e-01, -1.20446205e-01, 9.14997607e-03,
          2.62024868e-02, 6.91175833e-02, 6.56101480e-02,
          -4.92238090e-04, -2.47103721e-02, -4.92620915e-02,
          -1.00315981e-01, -6.64073974e-02, -6.84567261e-04,
          -7.22951605e-04, 7.38935322e-02, 8.63038376e-02,
          1.60250142e-02, -6.48481399e-02, -8.25336576e-02,
          -5.15874773e-02, -4.65723127e-02, -2.51976084e-02,
          -1.68938339e-02, 6.19330369e-02, 2.76408456e-02,
          -1.17612351e-02, -1.07647009e-01, -5.31344153e-02,
          -1.25161380e-01, -9.34130326e-02, 3.83445136e-02,
          5.23435250e-02, 9.12260339e-02, 5.82930930e-02,
          -2.10468136e-02, -2.21079811e-02, -9.13596302e-02,
          -1.14610069e-01, -6.21262230e-02, -4.10432853e-02,
          3.15431468e-02, 5.83860837e-02, 4.45638299e-02,
          -1.42191388e-02, -4.32400703e-02, -3.03422287e-02,
          -5.30094914e-02, -7.25560114e-02, -3.17534134e-02,
          3.52067761e-02, 7.37891048e-02, 5.27852960e-02, 1.08272233e-03,
          -6.87642694e-02, -4.04918473e-03, -7.35346675e-02,
          -5.02191447e-02, -3.20961550e-02, 8.77232701e-02,
          5.56124337e-02, 4.44642678e-02, -5.52102327e-02,
          -3.53330411e-02, -2.47579236e-02, -3.54060419e-02,
          -2.69664284e-02, -3.00460588e-02, 7.66834766e-02,
          6.86246306e-02, 1.05920002e-01, 4.07357626e-02, 8.72125290e-03,
          9.92190838e-03, -1.67888543e-03, -1.39945541e-02,
          1.46659445e-02, 1.14731953e-01, 4.29368392e-02, 1.07466422e-01,
          1.05869947e-02, 1.84715986e-02, 2.54764184e-02,
          -3.51022519e-02, -4.75773849e-02, -1.69385727e-02,
          -3.02309263e-02, -1.29397642e-02, -6.93464652e-02,
          -4.28155549e-02, 3.63686532e-02, -3.02855438e-03,
          -2.67757121e-02, -1.34251108e-02, 1.48215163e-02,
          -5.30044548e-02, -5.73277697e-02, -7.08241686e-02,
          -1.39306098e-01, -1.78404320e-02, 9.59808454e-02,
          -2.88246721e-02, -6.12479933e-02, -6.46626726e-02,
          -5.16792350e-02, 4.79324274e-02, 4.49788477e-03,
          1.08270245e-02, 1.10526316e-01, 1.12504423e-01, 1.23007372e-02,
          -5.76060265e-02, -2.79924390e-03, -6.47145286e-02,
          -1.05212284e-02, -4.61320020e-02, -6.88105077e-02,
          1.09946609e-01, 2.44872924e-02, -2.74801794e-02,
          -5.49226142e-02, -3.56040187e-02, -4.37428206e-02,
          -3.55202965e-02, 1.42459385e-02, -9.75189805e-02,
          1.61687862e-02, -1.34723494e-03, -4.15072814e-02,
          -7.12886006e-02, -2.73257736e-02, -3.36052366e-02,
          4.05538641e-02, 4.07664031e-02, 9.75536590e-04, 4.18574251e-02,
          8.69179815e-02, -4.63633146e-03, -6.27704114e-02,
          7.38348067e-03, -7.43773207e-02, 8.72738380e-03,
          8.10866989e-03, -9.58994925e-02, 6.04977310e-02,
          8.14839918e-03, -4.40048194e-03, -2.84537543e-02,
          1.03673786e-02, -4.96849744e-03, 1.86799113e-02,
          -1.66819133e-02, -6.81639761e-02, 1.85557194e-02,
          4.65053990e-02, 4.04174812e-03, 6.70087815e-04, 1.44811887e-02,
          -2.70428974e-02, 2.03918107e-02, 1.16466675e-02,
          -3.27807409e-03, 7.46648386e-02, 3.49827893e-02,
          -1.03490641e-02, 5.99990450e-02, -5.36064357e-02,
          -4.90908474e-02, -4.96517159e-02, -6.34384453e-02,
          -5.64745553e-02, 3.32369171e-02, 9.75854974e-03,
          -2.96664843e-03, -1.12643205e-02, 1.51552530e-02,
          -1.60833448e-02, 1.30969537e-02, -5.29890209e-02,
          -6.29203022e-02, 3.84766869e-02, 2.35095490e-02,
          -2.34976248e-03, 1.68156344e-02, -4.09264676e-02,
          -3.87882702e-02, -6.20407471e-03, -9.63252187e-02,
          -7.82257020e-02, 2.82456465e-02, 5.43270186e-02,
          -2.81430921e-03, 1.34265004e-02, -3.65209766e-02,
          -4.36416790e-02, 8.70297104e-03, -2.59802658e-02,
          -2.64009964e-02, 3.87478285e-02, 1.64221954e-02,
          -6.86411783e-02, -3.28494497e-02, 1.12370830e-02,
          6.37450675e-03, 2.60782354e-02, 9.74043924e-03,
          -1.47144962e-02, 1.61824878e-02, 3.28288823e-02,
          1.94501225e-02, 1.66555736e-02, 2.61829188e-03,
          -3.97553407e-02, 1.51389120e-02, -8.21179450e-02,
          -6.63911030e-02, -1.22467931e-02, -5.51659940e-03,
          -5.41428216e-02, -1.19258612e-02, 3.47097106e-02,
          -1.94967054e-02, 4.58987206e-02, -2.80839968e-02,
          -6.02814893e-04, -4.43510115e-02, 2.95981485e-02,
          -9.22634825e-02, -2.64706966e-02, 1.17460685e-02,
          1.00812521e-02, 3.21048312e-02, 5.67559041e-02,
          -1.45493597e-02, -2.02616416e-02, -4.24190760e-02,
          -1.17921211e-01, -9.59097445e-02, 3.07571702e-02,
          4.48500738e-02, 6.10820092e-02, 7.39422068e-02,
          -7.91576225e-03, -4.43448462e-02, -3.82695831e-02,
          -8.91090482e-02, -4.72683236e-02, 4.83087488e-02,
          -3.09141707e-02, 7.82135800e-02, 5.30039482e-02,
          3.53449211e-02, -3.63545232e-02, -1.34229334e-02,
          -1.07845068e-01, -3.57845575e-02, 1.16201732e-02,
          1.04439454e-02, 3.72014605e-02, 8.15912783e-02, 3.33030596e-02,
          -2.29968820e-02, -3.76330465e-02, -1.14710562e-01,
          -7.42563531e-02, 2.90742237e-02, 9.83382165e-02,
          1.02370307e-01, 7.05022365e-02, -7.42585072e-03,
          -5.53183444e-02, -3.48160863e-02, -7.14870170e-02,
          -5.07307984e-02, -4.13338393e-02, 5.45315407e-02,
          1.15680382e-01, 4.49374095e-02, 1.23216277e-02,
          -6.25494048e-02, -3.74260684e-03, -1.23533316e-01,
          -8.96251798e-02, -7.24726394e-02, 4.77476344e-02,
          3.86561193e-02, 6.41169921e-02, 2.86775101e-02, 1.35955280e-02,
          -2.55273804e-02, -7.94443861e-02, -7.42782727e-02,
          -6.38920292e-02, 1.45850377e-02, 4.20640372e-02,
          3.44747640e-02, 1.75571293e-02, -3.34451385e-02,
          -1.27788093e-02, -6.75090030e-02, -9.70349535e-02,
          -8.97288397e-02, -2.44423896e-02, 5.27113676e-02,
          5.92410937e-02, 6.13985769e-02, -7.96501189e-02,
          -2.82855635e-03, -3.46365236e-02, -1.16847083e-01,
          -3.76027972e-02, 4.56688106e-02, 3.27958316e-02,
          9.91147757e-02, 8.21763650e-02, -2.64259055e-02,
          2.77081225e-02, -5.19750714e-02, -6.78463578e-02,
          -6.16487637e-02, -6.14069365e-02, 1.56073505e-02,
          6.55266494e-02, 6.52426705e-02, -3.40665579e-02,
          9.89970565e-02, -2.47026002e-03, -2.91652400e-02,
          -5.68925552e-02, -1.78790502e-02, 2.06411555e-02,
          3.29416320e-02, 1.00439750e-01, 6.66851625e-02, 5.73824346e-02,
          -2.44076569e-02, -2.37907171e-02, -1.89120807e-02,
          -9.28840018e-04, 4.57423292e-02, 2.09604148e-02,
          -6.83987420e-03, 5.41563332e-02, 4.88505550e-02,
          -7.32552260e-02, -1.08724013e-01, -4.69702035e-02,
          -5.70589527e-02, -5.46824886e-03, -8.13020170e-02,
          -4.80589308e-02, 6.10123314e-02, 7.38465935e-02,
          -7.54570737e-02, -8.39996710e-02, -8.00755527e-03,
          -2.17802301e-02, 4.59464677e-02, 4.64693084e-02,
          -3.42399403e-02, 6.21299557e-02, 5.68861589e-02,
          -5.67791015e-02, -7.99186230e-02, -5.74220605e-02,
          -8.79191756e-02, -3.05394083e-02, -8.85376856e-02,
          -3.73076349e-02, 8.14918950e-02, 5.41112795e-02,
          -5.19627742e-02, -6.51189610e-02, 2.40883902e-02,
          -5.92252612e-02, 1.37495333e-02, -2.13778373e-02,
          -1.11669421e-01, 4.02456634e-02, 3.51234619e-03,
          -2.71950923e-02, -3.78714167e-02, 3.69635001e-02,
          1.62935741e-02, 2.80240271e-02, -2.85197776e-02,
          -1.09040067e-01, -3.29035558e-02, -3.59283155e-03,
          -5.95382303e-02, -2.81094313e-02, 8.34722538e-03,
          -4.85919863e-02, 2.11032573e-03, -2.23131310e-02,
          -3.41158174e-02, 3.59453112e-02, -3.34852785e-02,
          -8.52302238e-02, -2.29886714e-02, -3.93363461e-02,
          2.98016006e-03, 7.84721896e-02, 7.34983534e-02, 2.68314569e-03,
          -5.07720700e-03, 2.48359237e-02, -2.73372252e-02,
          -2.41107438e-02, 4.04007658e-02, 7.36631602e-02,
          4.79480065e-02, -5.29297628e-03, -4.99761142e-02,
          3.01320292e-02, 1.73130799e-02, -5.17824739e-02,
          -6.29659742e-03, -7.33405491e-03, 2.64156926e-02,
          8.28345641e-02, 6.92219613e-03, -1.53858000e-02,
          2.62332745e-02, 2.39389371e-02, -8.04299414e-02,
          -8.14053863e-02, 1.91679802e-02, 8.82049352e-02,
          7.82514513e-02, 1.04627050e-01, 4.19164225e-02, 3.44830044e-02,
          -8.15650448e-03, -9.42663997e-02, -5.29412068e-02,
          -2.02119909e-02, 6.60242736e-02, 9.80260000e-02,
          7.67978281e-02, 8.84961057e-03, 1.91698410e-02, 2.83736698e-02,
          -4.65067290e-02, -1.86282415e-02, 4.76638600e-02,
          3.38535458e-02, 4.14394364e-02, -5.73309995e-02,
          -5.71140386e-02, -7.84431398e-03, -1.08305691e-02,
          -5.49925789e-02, 4.39411169e-03, 4.12935987e-02,
          6.76449761e-02, 7.10180029e-02, -3.63017470e-02,
          -1.58716850e-02, -3.62209301e-03, -3.83878313e-02,
          -7.97530487e-02, 4.08668350e-03, 5.84598444e-02,
          7.17442185e-02, 5.98286465e-02, 2.02091108e-03,
          -1.79954581e-02, -1.30572431e-02, -3.22841667e-03,
          -8.10293034e-02, 2.21592076e-02, 1.91488657e-02,
          8.23370814e-02, 1.93361621e-02, -1.55445375e-03,
          4.97099757e-03, 1.77976899e-02, -6.30565658e-02,
          -7.32759535e-02, -2.56492980e-02, 3.58423218e-02,
          9.31408629e-03, 3.45742032e-02, -2.69418415e-02,
          1.86196435e-02, -2.05192473e-02, 5.80822583e-03,
          -5.83593920e-02, -5.83000481e-02, 1.53421890e-03,
          1.83039624e-02, 3.94330397e-02, 5.18662706e-02, 5.89584820e-02,
          7.33753107e-03, -6.64710812e-03, -8.23586732e-02,
          -1.51308905e-02, 6.22376893e-03, 2.59667635e-02,
          -5.30874217e-03, -2.61974037e-02, -1.72926666e-04,
          3.00854743e-02, 4.21921164e-02, -3.41083063e-03,
          -2.76453923e-02, -3.95694412e-02, -5.92737868e-02,
          1.33327525e-02, -6.26441650e-03, 8.44589993e-02,
          6.41119108e-02, 4.63615768e-02, -8.04528445e-02,
          -6.19135424e-02, -4.54721190e-02, 8.87755007e-02,
          6.85820952e-02, 5.12308069e-02, 3.34361121e-02, 4.02347334e-02,
          1.16667086e-02, -6.44889101e-02, -4.63888943e-02,
          -4.40177992e-02, 6.08022138e-02, 1.66112091e-02,
          4.23701033e-02, -1.15606943e-02, 2.60672159e-02,
          1.03693105e-01, -1.30340727e-02, -5.39399758e-02,
          -3.81388552e-02, -2.59968434e-02, 3.95958573e-02,
          -3.60822231e-02, 4.77326885e-02, 7.64221326e-02,
          7.16573447e-02, 3.32953013e-03, -3.06649711e-02,
          -4.27460745e-02, -3.14641488e-03, -4.07180600e-02,
          -6.82210028e-02, -2.44721081e-02, 4.67425026e-02,
          6.44799834e-03, -1.39697623e-02, -1.78687703e-02,
          -2.02218909e-02, 4.98377159e-03, 4.22476558e-03,
          6.15826882e-02, 9.68179852e-03, -1.91627089e-02,
          8.72421861e-02, -9.14096460e-03, -2.25701276e-02,
          -4.26653214e-02, 1.66177228e-02, 1.61719583e-02,
          3.16473357e-02, -3.98003496e-03, 2.20066644e-02,
          7.32684731e-02, 1.01093883e-02, -2.98068952e-02,
          -1.88366733e-02, 3.42277959e-02, -5.01045175e-02,
          -3.42190266e-02, -3.90691869e-02, 5.71170300e-02,
          7.18643963e-02, 1.13466587e-02, -5.07577956e-02,
          -1.78802758e-02, -2.42068619e-03, -8.63902178e-03,
          1.37187019e-02, -2.36063674e-02, 6.00832589e-02 ]
   uncompressed_sv_total: 98
   uncompressed_support_vectors:
      - [ 1.33387344e-02, 5.69089735e-03, 1.15634585e-02, 1.05317552e-02,
          9.84574258e-02, 3.09136480e-01, 3.09136480e-01, 5.95820695e-02,
          2.75496226e-02, 8.66520405e-03, 9.89264064e-03, 3.78118083e-02,
          3.72541174e-02, 2.82237530e-01, 3.09136480e-01, 3.09136480e-01,
          9.58406776e-02, 3.73898931e-02, 1.54348416e-02, 9.68149304e-03,
          3.86528252e-03, 5.93371596e-03, 7.93620348e-02, 3.09136480e-01,
          3.09136480e-01, 3.30171846e-02, 1.36581557e-02, 2.05758866e-02,
          1.09607605e-02, 6.37237728e-03, 2.99300589e-02, 3.09136480e-01,
          3.09136480e-01, 3.09136480e-01, 1.36878446e-01, 3.09868418e-02,
          1.12768775e-02, 4.14231755e-02, 1.18937604e-01, 1.09879002e-01,
          2.98964113e-01, 2.98964113e-01, 2.19650164e-01, 5.64221628e-02,
          3.33896130e-02, 1.16336728e-02, 3.83702926e-02, 6.36870340e-02,
          5.32417074e-02, 1.98481634e-01, 2.98964113e-01, 2.78985530e-01,
          6.32979870e-02, 5.33761233e-02, 3.16723622e-02, 2.74630319e-02,
          3.71921584e-02, 6.75689280e-02, 2.98964113e-01, 2.98964113e-01,
          2.85423428e-01, 1.34007305e-01, 5.00197299e-02, 2.34938562e-02,
          3.78059149e-02, 4.10164446e-02, 3.62067036e-02, 2.22568393e-01,
          2.98964113e-01, 2.43376911e-01, 1.36531860e-01, 7.43599907e-02,
          2.11539846e-02, 6.57848865e-02, 4.22379486e-02, 4.72111218e-02,
          1.50273919e-01, 2.40637466e-01, 2.40637466e-01, 1.57922953e-01,
          9.55653265e-02, 1.60463840e-01, 1.39959604e-01, 1.01177283e-01,
          5.07170931e-02, 1.06285259e-01, 2.16118425e-01, 2.14157298e-01,
          2.40637466e-01, 2.25495026e-01, 4.15858626e-02, 7.71720484e-02,
          5.94631173e-02, 5.57543561e-02, 1.57252491e-01, 2.40637466e-01,
          2.40637466e-01, 2.40637466e-01, 9.87639725e-02, 2.40637466e-01,
          2.20627382e-01, 1.53032169e-01, 7.97651559e-02, 9.28919241e-02,
          1.81137010e-01, 2.06656575e-01, 2.11242691e-01, 2.40637466e-01,
          2.16387108e-01, 7.87867382e-02, 3.25163119e-02, 1.16039803e-02,
          7.06501976e-02, 6.70697615e-02, 1.37233078e-01, 2.35643581e-01,
          2.68700033e-01, 2.68700033e-01, 1.38882339e-01, 8.93710479e-02,
          2.56128069e-02, 1.26192629e-01, 1.38462320e-01, 1.49008796e-01,
          1.87978923e-01, 2.68700033e-01, 2.68700033e-01, 1.54379904e-01,
          7.17953891e-02, 3.45776863e-02, 2.63920818e-02, 4.54986207e-02,
          9.81796235e-02, 2.10057423e-01, 2.68700033e-01, 2.68700033e-01,
          1.53217733e-01, 7.51019940e-02, 4.39542755e-02, 6.06893413e-02,
          1.21323630e-01, 1.57836273e-01, 2.68700033e-01, 2.68700033e-01,
          2.38942981e-01, 1.07750140e-01, 1.03362478e-01, 5.34096435e-02,
          1.10534057e-01, 1.73046127e-01, 1.90650299e-01, 1.58082306e-01,
          1.77024126e-01, 1.29417688e-01, 4.26268578e-02, 4.94420268e-02,
          4.26216498e-02, 9.38908979e-02, 1.26041383e-01, 1.26017332e-01,
          1.12681501e-01, 1.20872572e-01, 1.92175999e-01, 1.64144665e-01,
          1.17515892e-01, 1.51760519e-01, 2.38942981e-01, 2.38942981e-01,
          2.38942981e-01, 2.38942981e-01, 2.38942981e-01, 1.18926622e-01,
          1.09491974e-01, 1.04521975e-01, 1.36407480e-01, 2.38942981e-01,
          2.38942981e-01, 2.38942981e-01, 2.38942981e-01, 1.39975801e-01,
          1.54834107e-01, 3.12810466e-02, 5.67912124e-02, 2.76672728e-02,
          9.81164724e-02, 1.16432801e-01, 5.72343990e-02, 1.28667951e-01,
          2.00782418e-01, 1.42168134e-01, 2.31077261e-02, 3.09135076e-02,
          3.42665799e-02, 3.24863866e-02, 5.73511757e-02, 5.73920123e-02,
          2.21481383e-01, 2.93746650e-01, 2.73875892e-01, 6.90752938e-02,
          7.81393871e-02, 3.50520238e-02, 1.36324465e-01, 2.93746650e-01,
          2.85989016e-01, 2.93746650e-01, 2.93746650e-01, 2.93746650e-01,
          6.45371228e-02, 4.15477455e-02, 1.16437348e-02, 2.78347917e-02,
          5.17568626e-02, 6.51750937e-02, 2.93746650e-01, 2.93746650e-01,
          2.10013434e-01, 5.34885302e-02, 2.43596155e-02, 2.65032556e-02,
          2.13643629e-02, 1.82267893e-02, 6.75660521e-02, 1.67174235e-01,
          3.35558265e-01, 2.75807142e-01, 1.02256693e-01, 6.93280324e-02,
          1.68740526e-02, 3.40737812e-02, 6.31905673e-03, 4.20346744e-02,
          9.39965323e-02, 3.33520800e-01, 3.35558265e-01, 9.02103856e-02,
          4.56482545e-02, 1.18108802e-02, 1.88254435e-02, 6.18421659e-03,
          3.74084413e-02, 2.59252578e-01, 3.35558265e-01, 3.35558265e-01,
          1.49678886e-01, 9.56731960e-02, 3.64524275e-02, 4.38700728e-02,
          2.60988232e-02, 3.76628861e-02, 1.45447910e-01, 3.35558265e-01,
          2.69685816e-02, 2.23541167e-02, 6.28435099e-03, 1.09442379e-02,
          5.90511858e-02, 3.37152243e-01, 3.37152243e-01, 2.34453846e-02,
          2.36319229e-02, 2.82092113e-02, 8.38828925e-03, 2.01110379e-03,
          3.53950746e-02, 1.94075197e-01, 3.37152243e-01, 3.37152243e-01,
          1.59671098e-01, 3.10669839e-02, 2.20532604e-02, 1.51200481e-02,
          8.49202462e-03, 9.76524595e-03, 3.97155471e-02, 3.37152243e-01,
          3.37152243e-01, 1.01397140e-02, 2.04696488e-02, 1.92453768e-02,
          9.11328476e-03, 9.97107383e-03, 1.93771441e-02, 8.34595636e-02,
          3.37152243e-01, 3.37152243e-01, 6.37247711e-02, 9.60210431e-03,
          4.29053418e-02, 1.86784398e-02, 1.26332548e-02, 4.73911725e-02,
          2.88778782e-01, 2.88969547e-01, 2.88969547e-01, 2.03788579e-01,
          4.78556566e-02, 2.88434103e-02, 2.92173643e-02, 2.97143962e-02,
          2.97397040e-02, 1.45434856e-01, 2.88969547e-01, 2.56164670e-01,
          1.86591640e-01, 5.25223613e-02, 2.68846843e-02, 1.72896478e-02,
          2.03327127e-02, 2.60605011e-02, 1.16652079e-01, 2.88969547e-01,
          2.88969547e-01, 2.06734374e-01, 2.62834374e-02, 1.99247710e-02,
          2.30669286e-02, 3.69536243e-02, 3.55510637e-02, 2.06208333e-01,
          2.88969547e-01, 2.88969547e-01, 2.14529842e-01, 4.15363498e-02,
          3.82637456e-02, 3.26417871e-02, 7.21778423e-02, 5.96851297e-02,
          1.71576157e-01, 2.45638251e-01, 2.45638251e-01, 2.01877564e-01,
          5.80415577e-02, 1.90212652e-01, 1.47023141e-01, 1.41464055e-01,
          9.27310586e-02, 1.86357543e-01, 1.96997732e-01, 1.90581650e-01,
          1.60254434e-01, 1.49000958e-01, 5.88413663e-02, 2.55519357e-02,
          1.03592128e-01, 7.79429600e-02, 2.45638251e-01, 2.45638251e-01,
          2.01402038e-01, 1.60332024e-01, 9.75759029e-02, 1.62716523e-01,
          1.11705959e-01, 2.19733462e-01, 2.45638251e-01, 2.45638251e-01,
          2.17618167e-01, 2.06415609e-01, 1.37479514e-01, 1.16997786e-01,
          2.28664503e-01, 1.91634402e-01, 9.77152362e-02, 5.95028959e-02,
          6.29148707e-02, 4.57317792e-02, 1.01880707e-01, 1.57150447e-01,
          2.28664503e-01, 2.28664503e-01, 1.76729470e-01, 1.34387925e-01,
          7.34998509e-02, 5.85055612e-02, 1.37555942e-01, 2.07953587e-01,
          2.28664503e-01, 2.28664503e-01, 2.02511743e-01, 1.83602899e-01,
          1.54297784e-01, 2.28664503e-01, 2.28664503e-01, 8.42194781e-02,
          1.13121040e-01, 6.68519661e-02, 9.41087455e-02, 2.28664503e-01,
          2.10904434e-01, 1.82892472e-01, 2.28664503e-01, 8.79800320e-02,
          1.19918376e-01, 2.09463730e-01, 1.24285467e-01, 1.57440469e-01,
          1.21852584e-01, 1.28591418e-01, 1.43275708e-01, 1.30606368e-01,
          1.23679735e-01, 2.09114552e-01, 1.91383347e-01, 1.19453758e-01,
          1.09553248e-01, 1.48792148e-01, 1.58951491e-01, 1.82550073e-01,
          1.87202305e-01, 1.61953688e-01, 2.36316919e-01, 2.36316919e-01,
          1.32056385e-01, 1.22406475e-01, 1.21673241e-01, 1.09411731e-01,
          1.36449605e-01, 1.31493315e-01, 5.77809922e-02, 2.35648930e-01,
          2.36316919e-01, 1.30908027e-01, 9.28990692e-02, 2.12649375e-01,
          1.58313289e-01, 1.86041221e-01, 1.97378546e-01, 9.10441801e-02,
          2.36316919e-01, 2.36316919e-01, 1.51646301e-01, 1.75019950e-01,
          2.86673516e-01, 7.98443332e-02, 5.41827939e-02, 6.83868006e-02,
          4.68692631e-02, 1.32622764e-01, 1.20195590e-01, 1.18721373e-01,
          2.86673516e-01, 2.86673516e-01, 3.75689231e-02, 1.41481226e-02,
          5.96285006e-03, 8.48041661e-03, 1.97943561e-02, 2.11759675e-02,
          7.78223500e-02, 2.86673516e-01, 2.86673516e-01, 9.61615890e-02,
          6.71045184e-02, 1.00398384e-01, 6.89214990e-02, 2.86673516e-01,
          2.86673516e-01, 1.11894213e-01, 2.86673516e-01, 2.86673516e-01,
          2.90791877e-02, 1.12090698e-02, 1.88725460e-02, 4.37390879e-02,
          2.09203005e-01, 1.24353424e-01, 2.85862274e-02, 2.86673516e-01,
          3.51469129e-01, 2.61936951e-02, 1.80965867e-02, 2.13582092e-03,
          6.06358936e-03, 1.43710221e-03, 6.36084098e-03, 4.71749157e-02,
          3.51469129e-01, 3.51469129e-01, 4.52900901e-02, 2.36689858e-02,
          8.37092940e-03, 8.34685471e-03, 8.45228042e-03, 1.20299645e-02,
          3.28495353e-02, 3.51469129e-01, 3.51469129e-01, 8.34629405e-03,
          5.41003793e-03, 3.05195246e-03, 9.63408686e-03, 6.60787476e-03,
          3.61573393e-03, 1.67218763e-02, 3.51469129e-01, 3.51469129e-01,
          1.09110894e-02, 3.26179061e-03, 5.58290049e-04, 3.17978347e-03,
          1.54206867e-03, 3.76234669e-03, 1.34430882e-02, 3.51469129e-01,
          2.37692539e-02, 1.05347112e-02, 2.14418527e-02, 1.84647199e-02,
          3.59831192e-02, 2.94258952e-01, 2.54875541e-01, 7.28956563e-03,
          2.02199314e-02, 2.53439564e-02, 1.32163148e-02, 2.17052232e-02,
          3.90636958e-02, 9.69584286e-02, 4.49930161e-01, 4.49930161e-01,
          3.65044959e-02, 1.36613920e-02, 1.55401668e-02, 5.00903931e-03,
          7.29406998e-03, 9.83735919e-03, 1.25910388e-02, 4.53463532e-02,
          4.36661839e-02, 7.80894421e-03, 1.54322330e-02, 2.28837132e-02,
          1.89983211e-02, 1.51396431e-02, 3.27982754e-02, 9.36906114e-02,
          4.49930161e-01, 4.49930161e-01, 3.10181752e-02, 2.17421055e-02,
          2.22516451e-02, 2.22441759e-02, 1.72802620e-02, 2.79169306e-02,
          9.66332331e-02, 3.27888221e-01, 3.27888221e-01, 1.06487565e-01,
          2.77822502e-02, 2.45083235e-02, 4.19746228e-02, 3.84822115e-02,
          4.56684381e-02, 2.11125180e-01, 3.27888221e-01, 1.59844309e-01,
          1.26300037e-01, 6.13416284e-02, 1.77279748e-02, 2.75725648e-02,
          2.77216248e-02, 3.28248702e-02, 1.17441162e-01, 3.27888221e-01,
          3.27888221e-01, 4.06592190e-02, 1.96269359e-02, 3.82407047e-02,
          8.15361217e-02, 7.71433413e-02, 6.10155202e-02, 2.30188355e-01,
          3.27888221e-01, 3.27888221e-01, 1.41990229e-01, 1.23208851e-01,
          2.95157954e-02, 3.25079709e-02, 9.74630117e-02, 9.15796757e-02,
          1.40199244e-01, 1.64320022e-01, 5.72099313e-02, 7.82543570e-02,
          7.10893795e-02, 4.69726436e-02, 5.05945198e-02, 2.84869730e-01,
          2.84869730e-01, 2.54293352e-01, 7.54685700e-02, 5.73409088e-02,
          6.01369590e-02, 5.57565764e-02, 3.05586532e-02, 6.61609471e-02,
          1.51586354e-01, 2.05227628e-01, 2.84869730e-01, 2.84869730e-01,
          1.84559494e-01, 2.21086159e-01, 1.60001561e-01, 4.23932336e-02,
          1.09847128e-01, 2.84869730e-01, 2.84869730e-01, 2.84869730e-01,
          1.96413606e-01, 1.09170519e-01, 1.03177994e-01, 9.52957124e-02,
          7.59835914e-02, 8.45261067e-02, 2.83133835e-01, 2.83133835e-01,
          2.62262166e-01, 7.58048818e-02, 6.29329607e-02, 2.15232000e-02,
          2.75084972e-02, 1.56264409e-01, 1.39871106e-01, 1.95398360e-01,
          2.83133835e-01, 1.26177207e-01, 9.64963734e-02, 1.64605647e-01,
          9.83562917e-02, 6.61534816e-02, 7.47733042e-02, 2.08854482e-01,
          2.83133835e-01, 2.83133835e-01, 2.15825915e-01, 7.77890012e-02,
          1.28763700e-02, 1.99795887e-02, 5.75662702e-02, 1.15333140e-01,
          1.58338785e-01, 2.83133835e-01, 2.81052381e-01, 1.79795220e-01,
          1.00158617e-01, 6.28042147e-02, 5.35105802e-02, 5.25719412e-02,
          1.52486488e-01, 6.28942847e-02, 7.35298097e-02, 9.80843306e-02,
          5.75574711e-02, 1.76278353e-01, 2.88703620e-01, 1.32720113e-01,
          1.11760885e-01, 1.79871336e-01, 6.22668415e-02, 5.19028716e-02,
          5.01114838e-02, 8.06821138e-02, 2.88703620e-01, 2.88703620e-01,
          1.23070076e-01, 1.57153040e-01, 1.31873235e-01, 5.51046655e-02,
          1.87583953e-01, 2.35699087e-01, 2.05637455e-01, 1.98127761e-01,
          2.44556502e-01, 6.81962967e-02, 9.91852209e-02, 1.06771909e-01,
          3.11127342e-02, 8.98377225e-02, 1.30481854e-01, 2.46647462e-01,
          2.88703620e-01, 2.88703620e-01, 8.91625583e-02, 1.12224028e-01,
          7.83804432e-02, 3.96301635e-02, 1.79269537e-02, 3.50164771e-02,
          1.13753356e-01, 3.41541022e-01, 3.41541022e-01, 6.12671785e-02,
          6.39518946e-02, 6.01704083e-02, 1.26093412e-02, 5.64854220e-03,
          2.15449724e-02, 9.09272954e-02, 3.41541022e-01, 2.63582796e-01,
          1.76042411e-02, 6.89706132e-02, 2.00050231e-02, 2.59258542e-02,
          6.31429395e-03, 2.22680978e-02, 1.83938235e-01, 3.41541022e-01,
          3.41541022e-01, 4.16344665e-02, 3.69383134e-02, 1.25459433e-02,
          1.48319397e-02, 6.19718712e-03, 3.07983924e-02, 1.50392622e-01,
          3.41541022e-01, 3.41541022e-01, 1.09562855e-02, 1.62141845e-02,
          3.50178987e-01, 2.35505849e-02, 1.56677123e-02, 3.59010026e-02,
          1.15980580e-01, 2.36362904e-01, 1.19207889e-01, 6.49864003e-02,
          3.66325289e-01, 3.66325289e-01, 8.61100014e-03, 9.41515528e-03,
          2.49032280e-03, 4.39413674e-02, 6.94763905e-04, 1.40048787e-02,
          3.00091114e-02, 3.66325289e-01, 5.44449911e-02, 2.54187714e-02,
          4.33409996e-02, 8.91240612e-02, 2.77005255e-01, 3.66325289e-01,
          3.66325289e-01, 4.51845080e-02, 5.98613210e-02, 3.69743183e-02,
          1.98333114e-02, 2.78491285e-02, 2.09902190e-02, 8.86330083e-02,
          2.09957473e-02, 1.46429632e-02, 2.82703619e-02, 4.03644778e-02,
          3.39103565e-02, 8.30819178e-03, 2.52712611e-03, 7.89394975e-03,
          3.24557498e-02, 1.13711329e-02, 2.11966690e-02, 8.88098124e-03,
          3.37532684e-02, 7.64789879e-02, 6.62387013e-02, 4.22992855e-02,
          6.60584420e-02, 3.43077719e-01, 5.38618922e-01, 5.38618922e-01,
          8.16348791e-02, 7.05747455e-02, 9.69064683e-02, 1.73517119e-03,
          7.32994755e-04, 0., 2.63268817e-02, 1.10587543e-02,
          9.99277178e-03, 7.51978857e-03, 9.78382975e-02, 1.21372692e-01,
          1.15518542e-02, 1.73381697e-02, 3.69537175e-02, 1.57381803e-01,
          3.28637898e-01, 2.71038234e-01, 7.13537633e-02, 1.29349634e-01,
          6.28574332e-03, 9.47075803e-03, 1.84125863e-02, 2.91546341e-02,
          7.02291429e-02, 3.39211553e-01, 3.39211553e-01, 1.81651171e-02,
          4.75972518e-03, 2.68124528e-02, 4.21909951e-02, 5.80255315e-02,
          7.05891401e-02, 1.56860828e-01, 3.39211553e-01, 3.39211553e-01,
          1.11739673e-01, 7.46132135e-02, 8.39314982e-03, 2.12260080e-03,
          5.47187263e-03, 2.11286955e-02, 3.98994982e-02, 3.20665598e-01,
          3.39211553e-01, 1.94397122e-02, 1.03489300e-02, 1.86842177e-02,
          1.91948637e-02, 3.29218730e-02, 9.53370184e-02, 9.78171751e-02,
          3.39211553e-01, 3.39211553e-01, 5.97581938e-02, 3.95567268e-02,
          3.39966975e-02, 4.68138233e-02, 9.71439183e-02, 1.49464965e-01,
          2.50472158e-01, 2.50472158e-01, 1.98766887e-01, 1.69438198e-01,
          1.10915467e-01, 5.95988147e-02, 1.23783261e-01, 2.29483873e-01,
          2.50472158e-01, 2.50472158e-01, 2.39171445e-01, 9.60759148e-02,
          8.94712359e-02, 9.78584066e-02, 3.82278785e-02, 5.11763580e-02,
          1.07574858e-01, 2.50472158e-01, 1.93517506e-01, 2.23857492e-01,
          2.50472158e-01, 6.60913363e-02, 6.55667111e-02, 7.77355358e-02,
          1.35852516e-01, 2.50472158e-01, 2.50472158e-01, 2.50472158e-01,
          1.10594861e-01, 4.98212725e-02, 5.67202866e-02, 8.58140513e-02,
          8.34596828e-02, 2.31787086e-01, 2.31787086e-01, 2.17072800e-01,
          2.31787086e-01, 1.59545869e-01, 3.51833627e-02, 4.75632548e-02,
          8.35105479e-02, 7.77930692e-02, 1.23305686e-01, 2.07148045e-01,
          1.39241055e-01, 2.31787086e-01, 1.75345078e-01, 6.29207939e-02,
          8.08219314e-02, 6.98910654e-02, 1.41563475e-01, 2.27342442e-01,
          2.31787086e-01, 2.31787086e-01, 2.31787086e-01, 1.36358768e-01,
          8.32709521e-02, 1.60408482e-01, 1.12139054e-01, 1.30175740e-01,
          9.71423313e-02, 1.52740866e-01, 6.53665885e-02, 1.62161425e-01,
          2.31787086e-01, 2.31787086e-01, 2.31787086e-01, 1.57796457e-01,
          3.87597755e-02, 4.17686403e-02, 1.38121679e-01, 1.78560764e-01,
          2.83082575e-01, 1.82988763e-01, 1.26501426e-01, 3.86624224e-02,
          3.58324535e-02, 1.64657943e-02, 1.82341486e-02, 5.00247069e-02,
          1.08173020e-01, 2.15089232e-01, 2.89552420e-01, 2.89552420e-01,
          2.85814870e-02, 2.01654192e-02, 4.43662591e-02, 2.20914204e-02,
          4.36989702e-02, 4.98405844e-02, 1.53352752e-01, 2.04897240e-01,
          2.89552420e-01, 2.89552420e-01, 1.14795052e-01, 4.78229485e-02,
          3.01460177e-02, 8.33842997e-03, 6.50752485e-02, 1.23587124e-01,
          2.89552420e-01, 2.89552420e-01, 2.89552420e-01, 2.30251625e-01,
          8.41444265e-03, 1.19082909e-02, 3.42136435e-03, 1.81049146e-02,
          1.05854206e-01, 3.34014714e-01, 3.34014714e-01, 2.47480124e-02,
          3.24063860e-02, 6.94707595e-03, 7.21410522e-03, 6.11658813e-03,
          2.35536024e-02, 9.19927806e-02, 3.34014714e-01, 3.34014714e-01,
          1.80257075e-02, 3.13355327e-02, 4.76658642e-02, 3.59472334e-02,
          1.47156212e-02, 6.80675283e-02, 1.49905235e-01, 3.34014714e-01,
          3.34014714e-01, 8.92896056e-02, 1.33224368e-01, 1.18634878e-02,
          1.61442589e-02, 1.80710219e-02, 4.67954017e-02, 1.30391091e-01,
          3.34014714e-01, 3.34014714e-01, 4.57388647e-02, 4.04434577e-02,
          1.38288913e-02, 5.07979700e-03, 1.72694698e-02, 2.37675533e-02,
          8.38936418e-02, 4.12898779e-01, 4.12898779e-01, 1.82150248e-02,
          2.47537438e-02, 1.29462210e-02, 6.53146021e-03, 1.51446601e-02,
          1.05709219e-02, 3.60973775e-02, 6.97306097e-02, 4.16122489e-02,
          8.93444382e-03, 1.39249852e-02, 8.18229094e-03, 7.30781583e-03,
          1.79191846e-02, 3.12824398e-02, 1.06990777e-01, 4.12898779e-01,
          4.12898779e-01, 4.41025458e-02, 2.58148778e-02, 1.05207581e-02,
          8.78927112e-03, 1.98579617e-02, 2.58884467e-02, 7.47104809e-02,
          4.12898779e-01, 3.20819587e-01, 1.26733407e-02, 1.62729006e-02,
          2.20790952e-01, 4.81886137e-03, 1.44198695e-02, 0.,
          1.37182295e-01, 2.94427052e-02, 2.96644550e-02, 3.13837714e-02,
          2.26236597e-01, 3.55471134e-01, 2.61231866e-02, 1.03159122e-01,
          8.35559294e-02, 3.55471134e-01, 1.40471205e-01, 1.77329540e-01,
          2.24479765e-01, 3.55471134e-01, 2.18622256e-02, 3.74800269e-03,
          1.12154549e-02, 0., 1.40638918e-01, 0., 2.00320426e-02,
          8.44640005e-03, 2.22252682e-02, 3.13931227e-01, 1.62413474e-02,
          5.99587485e-02, 3.07201743e-02, 3.55471134e-01, 1.04438968e-03,
          1.45118460e-01, 5.98563850e-02, 3.16320568e-01, 2.60286815e-02,
          8.16831458e-03, 6.10015728e-03, 2.43931543e-02, 4.23771665e-02,
          2.20303655e-01, 2.86535889e-01, 2.98055019e-02, 2.61458941e-02,
          2.92470679e-02, 3.74688134e-02, 4.42362688e-02, 2.04227343e-01,
          1.63975865e-01, 4.36824769e-01, 4.36824769e-01, 1.16952635e-01,
          3.80892269e-02, 1.91254690e-02, 4.10588877e-03, 2.84857186e-03,
          6.71379408e-03, 3.26280147e-02, 2.42317747e-02, 2.88788993e-02,
          6.25718432e-03, 1.84193309e-02, 5.45576997e-02, 4.29124832e-02,
          3.16620432e-02, 1.05688021e-01, 7.73576871e-02, 3.80941957e-01,
          4.36824769e-01, 1.55033454e-01, 6.66298568e-02, 2.09308062e-02,
          3.37802395e-02, 7.93112889e-02, 3.30219984e-01, 1.85568020e-01,
          1.92115724e-01, 3.30219984e-01, 4.85413559e-02, 2.03945450e-02,
          3.64447497e-02, 6.11742325e-02, 1.44300252e-01, 3.30219984e-01,
          3.30219984e-01, 3.39189284e-02, 3.89508791e-02, 3.12419757e-02,
          3.01636662e-02, 4.37783785e-02, 3.62838805e-02, 4.22558412e-02,
          3.30219984e-01, 1.93183959e-01, 1.11040972e-01, 2.03625068e-01,
          8.73932019e-02, 4.51078117e-02, 3.79404165e-02, 4.84089963e-02,
          8.60000104e-02, 3.30219984e-01, 3.30219984e-01, 2.64848098e-02,
          3.48844938e-02, 3.30090337e-02, 3.09909973e-02, 9.69848856e-02,
          1.39005899e-01, 1.67363137e-01, 2.73555368e-01, 2.73555368e-01,
          7.60316029e-02, 8.37719142e-02, 1.54784679e-01, 8.34686086e-02,
          1.13765530e-01, 1.13031238e-01, 1.03523150e-01, 9.17652026e-02,
          8.92122686e-02, 1.24690041e-01, 2.73555368e-01, 2.73555368e-01,
          1.34549931e-01, 7.45404959e-02, 1.01268135e-01, 1.70962512e-01,
          2.73555368e-01, 2.73555368e-01, 9.16899443e-02, 5.53073026e-02,
          5.95670640e-02, 5.68972342e-02, 7.10129142e-02, 9.86891761e-02,
          1.37855098e-01, 2.09779248e-01, 2.02444166e-01, 1.86975777e-01,
          2.73555368e-01, 2.53058165e-01, 7.37684518e-02, 6.07270859e-02,
          2.40622051e-02, 2.90668942e-02, 3.69495377e-02, 4.15831134e-02,
          9.22362804e-02, 2.92015702e-01, 2.92015702e-01, 1.62040621e-01,
          1.25773773e-01, 6.23411424e-02, 2.06813924e-02, 4.91309166e-02,
          6.78134039e-02, 1.60104260e-01, 2.67062694e-01, 2.92015702e-01,
          2.92015702e-01, 7.68759847e-02, 5.19371815e-02, 3.56495194e-02,
          6.33998513e-02, 6.86319545e-02, 1.13214903e-01, 2.57936716e-01,
          2.92015702e-01, 1.37636647e-01, 2.62767196e-01, 7.42870048e-02,
          2.39654072e-02, 3.00883818e-02, 3.21065411e-02, 5.77960834e-02,
          1.89157099e-01, 2.92015702e-01, 2.92015702e-01, 1.82501152e-01,
          1.24158703e-01, 4.10364047e-02, 1.28554314e-01, 2.14620814e-01,
          2.55282849e-01, 1.70999736e-01, 2.29971126e-01, 2.55282849e-01,
          6.19877614e-02, 9.06451866e-02, 4.80402373e-02, 1.02378175e-01,
          2.14238018e-01, 2.55282849e-01, 2.55282849e-01, 7.58078843e-02,
          7.28961304e-02, 2.55282849e-01, 8.80343467e-02, 2.27079205e-02,
          5.27017899e-02, 5.42772412e-02, 5.91775812e-02, 1.62747994e-01,
          2.47898847e-01, 2.55282849e-01, 2.55282849e-01, 1.17832288e-01,
          6.15702495e-02, 8.38880688e-02, 8.36627409e-02, 6.62203506e-02,
          1.77526727e-01, 1.61618769e-01, 2.55282849e-01, 9.95376240e-03,
          2.61726975e-02, 2.06014663e-02, 3.91462743e-02, 1.33186832e-01,
          3.15528959e-01, 3.15528959e-01, 3.20509449e-02, 1.32121546e-02,
          3.90419806e-03, 3.71972285e-03, 1.11363549e-02, 2.13433765e-02,
          1.11319818e-01, 3.15528959e-01, 3.15528959e-01, 1.33460127e-02,
          1.04864556e-02, 1.83772296e-01, 7.00698122e-02, 4.98811267e-02,
          7.28576258e-02, 1.48075700e-01, 3.15528959e-01, 3.15528959e-01,
          5.75125851e-02, 1.45254418e-01, 8.87106508e-02, 4.18343917e-02,
          5.00514060e-02, 7.99034610e-02, 2.25408211e-01, 3.15528959e-01,
          3.15528959e-01, 1.60425697e-02, 5.49702570e-02, 2.95799058e-02,
          0., 0., 0., 1.05629876e-01, 0., 2.63898820e-02, 8.81903432e-03,
          2.95799058e-02, 4.29952711e-01, 0., 0., 0., 6.68377817e-01, 0.,
          2.84466177e-01, 9.50635970e-02, 4.29952711e-01, 0., 0., 0., 0.,
          0., 0., 0., 0., 0., 7.00342283e-02, 0., 0., 0., 2.44520187e-01,
          0., 5.72240576e-02, 1.91232748e-02, 7.00342283e-02,
          8.33713114e-02, 1.58940989e-03, 0., 0., 2.28775784e-01,
          2.43974756e-03, 6.16339594e-02, 2.07949374e-02, 8.46297219e-02,
          1.93583488e-01, 8.84057730e-02, 4.14893068e-02, 2.68343657e-01,
          3.48701209e-01, 3.24264407e-01, 3.48701209e-01, 3.27781856e-01,
          2.83698410e-01, 5.49381822e-02, 0., 0., 0., 1.22101299e-01, 0.,
          3.98150161e-02, 1.33054787e-02, 5.49381822e-02, 1.22659840e-01,
          1.15963165e-02, 3.78737375e-02, 1.70637414e-01, 3.48701209e-01,
          1.87034696e-01, 1.70303479e-01, 3.85356620e-02, 1.22659840e-01,
          2.04544198e-02, 1.31963426e-02, 1.02006784e-02, 3.06779206e-01,
          3.06779206e-01, 4.79400679e-02, 5.60707375e-02, 4.06521149e-02,
          2.86770109e-02, 4.34093922e-02, 2.84414981e-02, 6.72703832e-02,
          3.06779206e-01, 3.06779206e-01, 8.24333876e-02, 1.18856013e-01,
          1.00347131e-01, 3.89135778e-02, 4.03469382e-03, 1.11498369e-03,
          3.83948372e-03, 1.23581752e-01, 3.06779206e-01, 9.21479613e-02,
          1.55732095e-01, 1.02323920e-01, 8.61431938e-03, 5.15040010e-02,
          2.80031618e-02, 3.08705419e-02, 2.72433668e-01, 3.06779206e-01,
          2.30326280e-01, 3.06779206e-01, 3.06779206e-01, 7.37260878e-02,
          6.89640939e-02, 4.09540497e-02, 1.41033962e-01, 2.64624804e-01,
          2.64624804e-01, 1.11434333e-01, 8.07553753e-02, 8.46512616e-02,
          5.51361479e-02, 3.64325233e-02, 6.43544421e-02, 1.78681970e-01,
          2.64624804e-01, 2.40713030e-01, 1.98206782e-01, 1.45212665e-01,
          1.14232354e-01, 4.08524461e-02, 1.16933420e-01, 7.31651932e-02,
          1.03950605e-01, 2.64624804e-01, 1.90217182e-01, 2.16479793e-01,
          2.64624804e-01, 2.64624804e-01, 1.38114616e-01, 7.81189650e-02,
          8.06251839e-02, 1.91754922e-01, 2.64624804e-01, 2.14653999e-01,
          1.62078857e-01, 1.14864409e-01, 7.76957721e-02, 9.14879218e-02,
          1.56123981e-01, 1.87607452e-01, 1.83140129e-01, 1.51274681e-01,
          1.07348539e-01, 1.16881825e-01, 1.05681993e-01, 1.87768072e-01,
          1.32654145e-01, 2.81734407e-01, 1.83368742e-01, 1.11371510e-01,
          6.02859929e-02, 2.52376869e-02, 3.52887399e-02, 6.81654513e-02,
          1.93634003e-01, 2.81734407e-01, 1.18024223e-01, 1.89239740e-01,
          2.81734407e-01, 2.81734407e-01, 2.02629551e-01, 7.36000165e-02,
          2.50253882e-02, 3.48334685e-02, 8.02292898e-02, 2.81734407e-01,
          1.76936641e-01, 1.75029680e-01, 2.16826275e-01, 8.70786086e-02,
          2.54840460e-02, 9.63073317e-03, 1.66330896e-02, 2.81734407e-01,
          3.46582353e-01, 3.96817699e-02, 1.15835685e-02, 1.74788851e-02,
          1.11273723e-02, 1.33777549e-02, 6.43544272e-02, 1.07335545e-01,
          3.46582353e-01, 3.46582353e-01, 3.25955264e-02, 2.16008816e-02,
          2.68206596e-02, 2.03434806e-02, 1.03460019e-02, 5.99275455e-02,
          9.15770903e-02, 3.46582353e-01, 3.46582353e-01, 2.47158222e-02,
          1.78760607e-02, 8.52354709e-03, 2.12893654e-02, 1.92132674e-03,
          1.20800398e-02, 1.64676551e-02, 3.46582353e-01, 3.46582353e-01,
          1.01788202e-02, 1.20040895e-02, 4.42063762e-03, 2.02562250e-02,
          4.43087774e-04, 8.52401555e-03, 1.51169859e-02, 3.46582353e-01,
          2.97074884e-01, 7.51840770e-02, 4.83396612e-02, 4.80693392e-02,
          6.06243424e-02, 1.18812516e-01, 1.25304863e-01, 5.37356474e-02,
          2.97074884e-01, 2.97074884e-01, 1.68128148e-01, 1.34293810e-01,
          1.41116902e-01, 2.27040127e-01, 2.97074884e-01, 2.86436707e-01,
          1.56582296e-02, 2.51081735e-01, 2.97074884e-01, 4.03145030e-02,
          2.09649764e-02, 6.98526902e-03, 2.10312586e-02, 4.54122713e-03,
          1.05077624e-02, 1.33292126e-02, 2.97074884e-01, 2.97074884e-01,
          1.18247271e-01, 6.53554946e-02, 5.56196049e-02, 6.21248633e-02,
          2.80342586e-02, 1.56118590e-02, 9.17493086e-03, 2.00736374e-01,
          0., 0., 0., 0., 0., 0., 0., 0., 0., 5.91753244e-01, 0., 0., 0.,
          0., 0., 0., 0., 5.91753244e-01, 0., 0., 0., 0., 0., 0., 0., 0.,
          0., 0., 0., 0., 0., 0., 0., 0., 0., 0., 4.08477187e-02, 0., 0.,
          0., 1.04636766e-01, 0., 3.10760625e-02, 1.03850747e-02,
          4.08477187e-02, 3.33268017e-01, 4.09739278e-02, 1.22609131e-01,
          6.48003444e-02, 5.19729376e-01, 4.76642698e-01, 4.64032918e-01,
          9.35668498e-02, 3.33268017e-01, 1.25600211e-03, 0., 0., 0., 0.,
          0., 0., 0., 1.25600211e-03, 5.21468706e-02, 1.55660661e-03,
          4.65794280e-03, 0., 8.66507143e-02, 5.94185758e-03,
          4.30153757e-02, 1.24888439e-02, 5.21468706e-02, 1.25220232e-02,
          2.99504655e-03, 6.35674736e-03, 1.07450346e-02, 1.46114185e-01,
          1.00375466e-01, 2.33021647e-01, 2.17410743e-01, 3.12027652e-02,
          4.08171937e-02, 4.89302501e-02, 2.52991337e-02, 2.80093718e-02,
          1.97150797e-01, 3.96087527e-01, 3.96087527e-01, 3.96087527e-01,
          9.91529375e-02, 5.88286575e-03, 2.44536344e-03, 1.58524653e-03,
          9.25036438e-04, 1.51464846e-02, 8.47879704e-03, 2.31484249e-02,
          2.58050971e-02, 1.12662939e-02, 8.62503611e-03, 1.28025850e-02,
          1.03155747e-02, 1.72135588e-02, 1.12582497e-01, 3.96087527e-01,
          3.96087527e-01, 8.64714757e-02, 2.60460638e-02, 3.85355577e-02,
          3.87071818e-02, 4.07902189e-02, 3.51334251e-02, 5.80360442e-02,
          3.02710414e-01, 3.02710414e-01, 1.55353993e-01, 5.61056808e-02,
          4.46105301e-02, 2.46194676e-02, 1.00846305e-01, 3.02710414e-01,
          1.85748592e-01, 1.53893903e-01, 1.40169084e-01, 8.48287791e-02,
          6.25949204e-02, 1.61799211e-02, 1.34002045e-02, 1.79051496e-02,
          1.80348959e-02, 9.83308330e-02, 3.02710414e-01, 3.02710414e-01,
          5.26175573e-02, 1.08428290e-02, 4.08051796e-02, 3.02823987e-02,
          9.80635360e-02, 3.02710414e-01, 3.02710414e-01, 3.02710414e-01,
          3.02710414e-01, 8.86241123e-02, 1.82168335e-02, 3.71270999e-02,
          4.95832860e-02, 2.24540100e-01, 3.93245846e-01, 3.93245846e-01,
          8.34522024e-02, 4.83899489e-02, 4.73267175e-02, 4.81653586e-02,
          5.94028495e-02, 3.99808586e-02, 9.92498845e-02, 3.43334287e-01,
          2.07930192e-01, 4.15105820e-02, 2.62278896e-02, 9.23615228e-03,
          5.26219122e-02, 3.30089070e-02, 1.93522628e-02, 1.52810976e-01,
          3.93245846e-01, 3.93245846e-01, 1.62277311e-01, 9.66011584e-02,
          4.64739092e-02, 1.76370163e-02, 1.63821597e-02, 2.31646001e-03,
          3.64830270e-02, 1.71503663e-01, 1.82633385e-01, 1.31788515e-02,
          1.58836637e-02, 2.38407985e-03, 1.63821597e-02, 3.69147122e-01,
          8.33362937e-02, 1.13156967e-01, 7.09932968e-02, 3.69147122e-01,
          3.13857310e-02, 1.76085293e-01, 7.99122453e-02, 3.69147122e-01,
          3.69147122e-01, 4.75862138e-02, 7.77168497e-02, 3.07900626e-02,
          2.69717872e-01, 0., 1.06113464e-01, 6.34553283e-02,
          3.69147122e-01, 8.85809734e-02, 1.00098224e-02, 2.99530905e-02,
          6.76307827e-04, 2.90256053e-01, 1.09407268e-02, 4.67023887e-02,
          1.50733721e-02, 8.85809734e-02, 1.53538719e-01, 0., 0., 0.,
          5.77428192e-02, 0., 2.24582199e-02, 7.50514213e-03,
          1.53538719e-01, 3.82337630e-01, 8.82340521e-02, 7.40927979e-02,
          8.27182923e-03, 3.19362193e-01, 0., 8.92018601e-02,
          5.69068342e-02, 3.82337630e-01, 3.82337630e-01, 1.16625749e-01,
          5.96098229e-02, 3.71911228e-02, 3.82337630e-01, 0.,
          7.14117587e-02, 4.73837294e-02, 3.82337630e-01, 2.08253592e-01,
          7.75696384e-03, 2.32117027e-02, 0., 5.67360520e-02, 0.,
          6.47503836e-03, 2.16384605e-03, 2.08253592e-01, 7.70430192e-02,
          9.97323822e-03, 2.98436154e-02, 0., 9.68660042e-02, 0.,
          2.66795140e-03, 8.91584728e-04, 7.70430192e-02 ]
      - [ 0., 0., 0., 0., 0., 0., 0., 0., 0., 1.62434042e-03, 0., 0., 0.,
          6.95011753e-04, 0., 0., 0., 1.62434042e-03, 4.99093346e-02,
          3.83555070e-02, 8.43847692e-02, 5.86570650e-02, 2.21313909e-02,
          0., 0., 0., 2.41306499e-02, 5.57462037e-01, 5.57462037e-01,
          5.20618618e-01, 2.03262046e-01, 1.10526636e-01, 0., 0., 0.,
          1.80910274e-01, 1.70971220e-03, 2.03032410e-04, 3.53377219e-03,
          6.99147489e-03, 5.47901308e-03, 0., 0., 0., 1.02417369e-03,
          1.75477769e-02, 3.95080037e-02, 3.05905372e-01, 3.32063884e-01,
          2.74542451e-01, 2.23291805e-03, 2.80567445e-03, 0.,
          8.65126308e-03, 3.32063884e-01, 3.32063884e-01, 8.06989744e-02,
          3.47802006e-02, 1.93653498e-02, 0., 3.56684992e-04,
          1.58013892e-03, 4.04758677e-02, 3.32063884e-01, 3.32063884e-01,
          3.32063884e-01, 3.32063884e-01, 1.96864411e-01, 8.36367719e-03,
          1.13766817e-02, 2.84205284e-02, 6.56751692e-02, 7.87101164e-02,
          7.08983839e-02, 2.74977446e-01, 2.74977446e-01, 2.74977446e-01,
          9.27466899e-03, 8.33183341e-03, 9.27689951e-03, 1.94083825e-02,
          2.23020703e-01, 1.96671262e-01, 1.95117027e-01, 2.28025496e-01,
          1.57369420e-01, 2.30420530e-02, 3.53166759e-02, 3.23447324e-02,
          6.32684976e-02, 2.58605510e-01, 2.74977446e-01, 2.74977446e-01,
          2.74977446e-01, 1.70951575e-01, 1.37541639e-02, 1.46214096e-02,
          4.26358618e-02, 8.34486187e-02, 2.74977446e-01, 2.74977446e-01,
          1.41025484e-01, 7.05626458e-02, 5.44362739e-02, 1.90286636e-02,
          2.43893862e-02, 5.67956641e-02, 1.82032317e-01, 2.65626669e-01,
          2.74253637e-01, 8.61838236e-02, 3.72544266e-02, 2.54749712e-02,
          1.37125058e-02, 2.94396132e-02, 4.30553369e-02, 9.26934332e-02,
          2.36024126e-01, 2.32971430e-01, 7.77511597e-02, 5.54708801e-02,
          5.12998402e-02, 3.04418989e-02, 9.28978100e-02, 1.05494879e-01,
          1.44021407e-01, 2.74253637e-01, 2.74253637e-01, 1.17934838e-01,
          1.59405302e-02, 2.93179229e-02, 2.87928358e-02, 3.87496948e-02,
          8.80606323e-02, 2.61670172e-01, 2.74253637e-01, 2.67023981e-01,
          6.34941086e-02, 3.02284695e-02, 1.18595205e-01, 1.79375887e-01,
          2.74253637e-01, 2.74253637e-01, 2.74253637e-01, 6.23151772e-02,
          6.36775717e-02, 8.15167129e-02, 2.53980637e-01, 1.64492786e-01,
          6.63917363e-02, 7.73874223e-02, 5.33774570e-02, 7.03346655e-02,
          1.94422994e-02, 7.01720715e-02, 2.14776576e-01, 2.76914805e-01,
          2.76840150e-01, 1.12469710e-01, 5.10078110e-02, 1.61228217e-02,
          2.52111051e-02, 4.45554592e-02, 3.34595330e-02, 3.85999046e-02,
          1.46295249e-01, 2.14572400e-01, 2.70406991e-01, 2.76914805e-01,
          2.09111616e-01, 7.77197927e-02, 3.44603434e-02, 1.49652034e-01,
          2.76914805e-01, 2.76914805e-01, 2.23362356e-01, 2.48213440e-01,
          2.76914805e-01, 1.15300611e-01, 4.42852862e-02, 2.66980920e-02,
          9.50276703e-02, 2.79689848e-01, 2.79689848e-01, 2.31169090e-01,
          6.26724884e-02, 2.02459563e-02, 8.63763317e-03, 1.07755251e-02,
          1.38905942e-01, 2.79689848e-01, 2.79689848e-01, 2.79689848e-01,
          2.03218237e-01, 4.68748771e-02, 9.51656699e-03, 2.21459530e-02,
          6.10993281e-02, 3.51715460e-02, 1.98997930e-01, 2.79689848e-01,
          2.79689848e-01, 1.20844051e-01, 5.62006235e-02, 4.52801958e-02,
          4.18216996e-02, 2.67896950e-02, 1.02488138e-01, 2.54495502e-01,
          2.79689848e-01, 2.79689848e-01, 1.12974018e-01, 3.65915485e-02,
          1.40128303e-02, 5.12137748e-02, 5.51689677e-02, 2.84046143e-01,
          2.84046143e-01, 1.93380177e-01, 2.23670349e-01, 1.13078631e-01,
          2.82385107e-02, 1.58226006e-02, 7.81209394e-02, 1.80276647e-01,
          2.84046143e-01, 2.84046143e-01, 1.14854604e-01, 4.54088561e-02,
          5.83949834e-02, 2.63302457e-02, 5.53888269e-02, 1.18499927e-01,
          2.83734798e-01, 2.38447979e-01, 2.84046143e-01, 1.85203075e-01,
          9.52658504e-02, 7.15034828e-02, 2.81041488e-02, 2.44542025e-02,
          1.18580185e-01, 1.34092480e-01, 2.79349625e-01, 2.12841615e-01,
          9.09874663e-02, 4.85574566e-02, 9.93735343e-02, 3.24464552e-02,
          3.66798081e-02, 1.62676275e-01, 1.59466743e-01, 9.65222791e-02,
          8.74019563e-02, 1.04028597e-01, 4.09784988e-02, 6.01768540e-03,
          1.83171811e-04, 7.70408005e-05, 2.57456832e-05, 2.23125163e-02,
          2.90136784e-01, 2.90136784e-01, 2.90136784e-01, 1.52598858e-01,
          2.60495394e-02, 6.24011317e-03, 3.41852102e-03, 8.92379042e-03,
          4.87930104e-02, 2.90136784e-01, 2.90136784e-01, 2.90136784e-01,
          2.45136410e-01, 4.62272279e-02, 1.14525827e-02, 4.15865984e-03,
          4.42047557e-03, 8.06504488e-02, 2.90136784e-01, 2.90136784e-01,
          2.90136784e-01, 2.90136784e-01, 8.30466822e-02, 5.10463715e-02,
          5.96122295e-02, 8.63925368e-02, 9.70523879e-02, 2.96382785e-01,
          2.96382785e-01, 1.95517927e-01, 8.26663077e-02, 4.43278179e-02,
          1.27592487e-02, 9.31865256e-03, 3.05548180e-02, 8.29353333e-02,
          2.96382785e-01, 2.96382785e-01, 2.08037764e-01, 1.09669209e-01,
          5.13377190e-02, 1.74793787e-02, 1.71544738e-02, 5.52274622e-02,
          8.43924657e-02, 2.96382785e-01, 2.96382785e-01, 2.96382785e-01,
          2.06047460e-01, 1.33171067e-01, 6.44678771e-02, 7.11950883e-02,
          1.58758879e-01, 1.09411001e-01, 2.11788997e-01, 1.97736993e-01,
          9.22723487e-02, 1.26270980e-01, 1.23311304e-01, 5.26732057e-02,
          5.44195622e-02, 1.19062558e-01, 9.06439051e-02, 2.86450148e-01,
          2.86450148e-01, 2.86450148e-01, 1.69992104e-01, 9.17060003e-02,
          4.98483703e-02, 4.28005308e-02, 1.60599574e-01, 2.02849850e-01,
          2.86450148e-01, 2.86450148e-01, 1.53384820e-01, 4.95999008e-02,
          8.40403959e-02, 6.93593547e-02, 6.05109073e-02, 1.46899492e-01,
          2.76052058e-01, 1.45759180e-01, 1.55277863e-01, 9.27459821e-02,
          9.90897939e-02, 1.41305447e-01, 9.45191234e-02, 1.09696224e-01,
          1.98254392e-01, 1.49881318e-01, 1.55339822e-01, 8.49353150e-02,
          1.17151566e-01, 1.28157169e-01, 1.64399430e-01, 9.38709304e-02,
          8.96938071e-02, 1.71646863e-01, 1.94106996e-01, 2.59784698e-01,
          3.15710872e-01, 1.10472254e-01, 1.33740874e-02, 8.24606493e-02,
          9.15285796e-02, 8.76427218e-02, 1.18290052e-01, 2.18149349e-01,
          1.12827741e-01, 1.28329396e-01, 5.32534644e-02, 8.58911499e-03,
          1.60221532e-01, 3.15710872e-01, 3.15710872e-01, 3.15710872e-01,
          1.87210590e-01, 1.88821211e-01, 8.50335360e-02, 8.58823285e-02,
          7.14902282e-02, 9.75137427e-02, 8.03893209e-02, 1.39140502e-01,
          9.83264521e-02, 1.54370427e-01, 9.91253108e-02, 5.76055385e-02,
          5.77934310e-02, 3.70140560e-02, 1.25311568e-01, 1.86176881e-01,
          3.15710872e-01, 2.11565107e-01, 6.45044595e-02, 1.19545804e-02,
          1.01796174e-02, 7.61512481e-03, 9.92142875e-03, 5.05322516e-02,
          2.16445848e-01, 3.47421914e-01, 2.23506153e-01, 2.42133439e-02,
          5.06897755e-02, 1.43791065e-01, 1.29553452e-01, 1.00502960e-01,
          6.46494776e-02, 2.19275087e-01, 3.47421914e-01, 1.91962376e-01,
          3.98343876e-02, 1.00244023e-02, 1.20990621e-02, 1.11779431e-02,
          1.33171491e-02, 3.55244540e-02, 1.61058828e-01, 3.47421914e-01,
          1.93697795e-01, 1.02849854e-02, 4.41296026e-02, 8.70877281e-02,
          2.74032932e-02, 3.74255814e-02, 9.97908339e-02, 3.47421914e-01,
          3.47421914e-01, 2.53917366e-01, 1.87995713e-02, 7.33749494e-02,
          2.65115082e-01, 3.03732455e-01, 3.03732455e-01, 1.47523507e-01,
          1.42306477e-01, 1.31562561e-01, 7.62586519e-02, 3.21281552e-02,
          5.62623478e-02, 1.30460829e-01, 2.76938945e-01, 2.38635704e-01,
          9.42927524e-02, 5.81134036e-02, 2.84027122e-02, 4.93678302e-02,
          2.64096800e-02, 6.83289543e-02, 1.27144635e-01, 1.07401706e-01,
          1.57369703e-01, 2.42943987e-01, 3.03732455e-01, 3.03732455e-01,
          1.64727956e-01, 1.74249969e-02, 8.26543793e-02, 8.78751203e-02,
          1.15019724e-01, 1.31196007e-01, 1.08513728e-01, 2.76374400e-01,
          1.88067973e-01, 5.40117100e-02, 3.22079360e-02, 1.86054751e-01,
          2.38418445e-01, 2.38418445e-01, 1.28256977e-01, 1.17499582e-01,
          6.02572076e-02, 4.90634739e-02, 1.28319025e-01, 1.20833687e-01,
          2.38418445e-01, 2.38418445e-01, 1.94507807e-01, 1.02494508e-01,
          1.91044450e-01, 9.34425592e-02, 7.83437490e-02, 1.63962394e-01,
          1.39167115e-01, 2.38418445e-01, 2.38418445e-01, 1.56134993e-01,
          1.13888912e-01, 1.49090409e-01, 8.53646621e-02, 1.30473688e-01,
          1.27967849e-01, 1.30222157e-01, 2.38418445e-01, 2.38418445e-01,
          1.51206702e-01, 7.40336850e-02, 2.04246894e-01, 6.97628260e-02,
          2.11055651e-01, 1.82951346e-01, 1.57390401e-01, 1.40416399e-01,
          2.02128962e-01, 3.03286165e-01, 3.03286165e-01, 1.06821336e-01,
          3.77965532e-02, 1.06558409e-02, 1.68588590e-02, 4.75232303e-02,
          1.63832784e-01, 2.25228682e-01, 3.03286165e-01, 2.60360479e-01,
          1.41282067e-01, 6.79362640e-02, 7.31189921e-02, 1.61066741e-01,
          6.50919452e-02, 2.94627175e-02, 9.59927142e-02, 3.03286165e-01,
          3.03286165e-01, 1.33699268e-01, 3.60318460e-02, 1.48530304e-02,
          1.83843020e-02, 2.02981941e-02, 6.85273260e-02, 1.43647641e-01,
          2.98924029e-01, 2.30241984e-01, 2.08043739e-01, 4.50433157e-02,
          3.95742431e-02, 9.78061780e-02, 3.40901203e-02, 1.89308837e-01,
          1.42300144e-01, 2.30949551e-01, 2.16847688e-01, 2.30949551e-01,
          1.39010876e-01, 1.36145785e-01, 2.30949551e-01, 1.06969900e-01,
          1.36866048e-01, 6.19734898e-02, 1.22505940e-01, 1.54119164e-01,
          2.16152832e-01, 1.42253146e-01, 1.28537759e-01, 2.09839314e-01,
          1.31722867e-01, 1.01274647e-01, 1.23723887e-01, 1.45951450e-01,
          2.03470305e-01, 2.30949551e-01, 2.02339232e-01, 1.46243706e-01,
          1.90868989e-01, 5.99234812e-02, 7.43352249e-02, 4.01630104e-02,
          5.59184700e-02, 1.19738251e-01, 2.30949551e-01, 2.30949551e-01,
          2.30949551e-01, 2.03098714e-01, 9.61784869e-02, 9.00135711e-02,
          5.92698753e-02, 5.51943295e-02, 9.49994922e-02, 1.56839117e-01,
          1.01420343e-01, 1.42757118e-01, 1.79785803e-01, 1.22636095e-01,
          1.81630597e-01, 1.29803911e-01, 1.50644302e-01, 2.26355299e-01,
          2.22145170e-01, 1.08046703e-01, 1.12173051e-01, 1.74741909e-01,
          2.01059714e-01, 8.16209912e-02, 9.51717347e-02, 5.41727394e-02,
          1.00459658e-01, 1.28840730e-01, 2.08294034e-01, 2.26355299e-01,
          2.26355299e-01, 1.38850778e-01, 1.52439162e-01, 2.26355299e-01,
          1.97277337e-01, 1.84568793e-01, 2.23264337e-01, 2.22056657e-01,
          2.08605260e-01, 2.26355299e-01, 2.26355299e-01, 2.34332070e-01,
          1.41828462e-01, 9.61685479e-02, 1.61765590e-01, 1.00858368e-01,
          8.49788859e-02, 1.35961890e-01, 1.13371447e-01, 1.86368570e-01,
          1.48388579e-01, 9.38977674e-02, 5.75775579e-02, 6.65344670e-02,
          1.12235636e-01, 1.60222694e-01, 2.34332070e-01, 1.26343399e-01,
          1.05450153e-01, 1.96510553e-01, 2.34332070e-01, 1.32329583e-01,
          1.36207476e-01, 1.40331671e-01, 1.57835796e-01, 1.51968360e-01,
          1.62487641e-01, 2.34332070e-01, 2.10448772e-01, 1.95711836e-01,
          7.20878467e-02, 1.02388807e-01, 2.19968602e-01, 2.34332070e-01,
          2.34332070e-01, 2.34332070e-01, 2.34332070e-01, 2.90314518e-02,
          2.49848664e-02, 2.50950847e-02, 2.49572825e-02, 5.26792556e-02,
          1.32345662e-01, 3.66747797e-01, 1.21080868e-01, 3.01506780e-02,
          2.37910599e-02, 2.47150864e-02, 6.19721459e-03, 1.36829391e-02,
          7.50294477e-02, 3.73302996e-01, 3.73302996e-01, 3.34176868e-01,
          1.26005579e-02, 6.48171082e-02, 2.91186143e-02, 1.85274184e-02,
          2.34488621e-02, 1.11988425e-01, 1.92286089e-01, 1.97342336e-01,
          1.94525093e-01, 1.06987678e-01, 3.00045889e-02, 1.21580539e-02,
          1.12540666e-02, 2.44827904e-02, 7.49097764e-02, 2.57539749e-01,
          3.73302996e-01, 2.58288831e-01, 4.62938473e-02, 1.63352564e-02,
          8.38109665e-03, 8.58302694e-03, 1.53390272e-02, 6.66123182e-02,
          3.30546230e-01, 3.30546230e-01, 1.97834760e-01, 5.10951551e-03,
          4.10717502e-02, 2.43697930e-02, 2.79945172e-02, 3.45181562e-02,
          5.24535961e-02, 2.75883406e-01, 2.96308964e-01, 7.40456879e-02,
          2.11669132e-02, 2.06643157e-02, 2.95130373e-03, 6.63003512e-03,
          2.20086854e-02, 5.37208468e-02, 2.89461344e-01, 3.30546230e-01,
          2.76099205e-01, 1.72115490e-02, 4.14999649e-02, 2.34332122e-02,
          1.55928843e-02, 6.30806088e-02, 5.58882244e-02, 3.08558792e-01,
          3.30546230e-01, 2.60196179e-01, 4.31836657e-02, 1.53549448e-01,
          1.06432922e-01, 6.97387829e-02, 7.54373968e-02, 1.27807379e-01,
          1.52432010e-01, 1.66084349e-01, 1.13015905e-01, 1.05272181e-01,
          1.56339899e-01, 1.65090054e-01, 1.17399625e-01, 7.56422058e-02,
          9.60627571e-02, 4.71354686e-02, 1.63133189e-01, 1.29782960e-01,
          1.43518582e-01, 1.75877422e-01, 1.74233109e-01, 8.32239240e-02,
          2.08296865e-01, 1.24753952e-01, 2.50601232e-01, 2.50601232e-01,
          2.50601232e-01, 2.38347083e-01, 2.50601232e-01, 2.50601232e-01,
          1.96989581e-01, 1.90773144e-01, 1.15285069e-01, 5.70437759e-02,
          1.56820565e-01, 1.92880690e-01, 2.50601232e-01, 6.51288927e-02,
          1.70810640e-01, 2.79581308e-01, 2.79581308e-01, 2.79581308e-01,
          5.12722619e-02, 3.89181748e-02, 2.30623130e-02, 4.82043959e-02,
          1.17255002e-01, 2.03302249e-01, 2.79581308e-01, 2.77121991e-01,
          2.79581308e-01, 7.03088567e-02, 8.64893943e-02, 6.98847324e-02,
          9.53755528e-02, 9.10286456e-02, 1.33923307e-01, 2.31281757e-01,
          1.98482618e-01, 2.73682445e-01, 1.12358458e-01, 1.04985788e-01,
          4.50241007e-02, 7.38402233e-02, 9.26153883e-02, 8.86499733e-02,
          1.17065258e-01, 7.22394958e-02, 2.79581308e-01, 1.29509136e-01,
          1.53274685e-01, 1.33508161e-01, 1.04535811e-01, 6.52197748e-02,
          1.28244191e-01, 1.65276840e-01, 1.95839912e-01, 2.56768554e-01,
          2.50964165e-01, 1.57984421e-01, 9.52284187e-02, 5.55954725e-02,
          4.05253060e-02, 4.01565805e-02, 6.85445294e-02, 1.42537996e-01,
          2.56768554e-01, 2.56768554e-01, 2.56768554e-01, 2.03111604e-01,
          5.03181331e-02, 6.03929088e-02, 6.09174110e-02, 1.16560616e-01,
          1.08098321e-01, 2.56768554e-01, 2.56768554e-01, 1.56008556e-01,
          1.32697672e-01, 6.51345700e-02, 7.29966983e-02, 7.53963664e-02,
          1.34276286e-01, 1.22360781e-01, 2.56768554e-01, 2.56768554e-01,
          2.56768554e-01, 1.41582891e-01, 5.15236892e-02, 4.53042462e-02,
          5.32137454e-02, 3.58330607e-02, 7.54749328e-02, 1.05649389e-01,
          2.49216914e-01, 2.32194215e-01, 2.11285457e-01, 6.77574053e-02,
          1.23906791e-01, 2.15295166e-01, 1.12198345e-01, 9.57567021e-02,
          1.83300659e-01, 2.49216914e-01, 2.22657233e-01, 2.17723310e-01,
          1.48747951e-01, 7.00954199e-02, 5.54583296e-02, 6.29789308e-02,
          6.19829968e-02, 1.68660268e-01, 2.14410409e-01, 2.43111119e-01,
          1.67265296e-01, 7.94307664e-02, 1.19342819e-01, 7.50163421e-02,
          7.59039596e-02, 8.46909657e-02, 2.49216914e-01, 2.49216914e-01,
          2.49216914e-01, 2.49216914e-01, 2.14720294e-01, 1.01613551e-01,
          1.57587975e-01, 6.47524446e-02, 5.81174269e-02, 1.33987650e-01,
          1.74070790e-01, 1.70325115e-01, 1.82348266e-01, 1.89921156e-01,
          1.28941402e-01, 7.70226941e-02, 4.95907292e-02, 7.77451620e-02,
          2.30988130e-01, 2.48328820e-01, 2.51317620e-01, 2.51317620e-01,
          2.41386116e-01, 9.11315680e-02, 4.56332527e-02, 3.99075374e-02,
          5.70198148e-02, 1.54343128e-01, 1.47012189e-01, 2.51317620e-01,
          2.51317620e-01, 1.83010206e-01, 1.26279265e-01, 3.96757387e-02,
          6.25353605e-02, 7.15858415e-02, 2.03898281e-01, 1.45383701e-01,
          2.51317620e-01, 2.51317620e-01, 2.03552514e-01, 1.40710384e-01,
          2.51426362e-02, 6.06594197e-02, 5.59517778e-02, 2.12104127e-01,
          2.19480738e-01, 2.01424658e-01, 2.19480738e-01, 1.90265581e-01,
          9.69654694e-02, 2.34238114e-02, 7.04497620e-02, 7.65561014e-02,
          1.30531192e-01, 2.19480738e-01, 1.82971999e-01, 1.75040156e-01,
          1.14438996e-01, 2.19480738e-01, 6.92326427e-02, 1.41834527e-01,
          1.55328393e-01, 2.19480738e-01, 1.47013888e-01, 1.28723443e-01,
          2.19480738e-01, 2.01995522e-01, 2.19480738e-01, 1.31754816e-01,
          1.86903358e-01, 2.11777836e-01, 2.19480738e-01, 2.19480738e-01,
          1.30096778e-01, 1.60149887e-01, 1.80257216e-01, 3.52257453e-02,
          1.41970627e-02, 2.76647564e-02, 4.97545861e-02, 7.60514811e-02,
          2.07442567e-01, 3.36957872e-01, 2.51280457e-01, 4.09775786e-02,
          2.94549111e-02, 2.67419890e-02, 1.61127876e-02, 5.55040538e-02,
          5.57987504e-02, 3.16131234e-01, 3.36957872e-01, 3.36957872e-01,
          6.92096725e-02, 9.33776051e-02, 6.40242994e-02, 9.11742970e-02,
          5.46837859e-02, 1.12188943e-01, 1.72245592e-01, 1.59536928e-01,
          1.16519876e-01, 7.05606341e-02, 4.95968722e-02, 4.91059795e-02,
          7.24158809e-02, 2.76705939e-02, 7.83310458e-02, 2.54015326e-01,
          3.36957872e-01, 3.36957872e-01, 7.69392252e-02, 5.97519912e-02,
          8.65131840e-02, 4.06054407e-02, 6.07500188e-02, 4.25117537e-02,
          1.72583237e-01, 3.46578926e-01, 3.46578926e-01, 1.03014268e-01,
          1.10912800e-01, 1.31308615e-01, 7.80706108e-02, 6.15987778e-02,
          6.98437542e-02, 5.32832816e-02, 1.28653526e-01, 1.28268793e-01,
          1.18068375e-01, 5.57268709e-02, 5.51176220e-02, 6.08793534e-02,
          3.24748643e-02, 6.45026118e-02, 2.46157214e-01, 3.46578926e-01,
          3.46578926e-01, 8.79402086e-02, 1.07450210e-01, 7.71218538e-02,
          5.28921708e-02, 4.71206866e-02, 6.13699257e-02, 1.60511047e-01,
          3.46578926e-01, 3.19200605e-01, 7.70513564e-02, 7.48994723e-02,
          5.52546643e-02, 7.35454038e-02, 6.89835548e-02, 1.21390432e-01,
          1.35955870e-01, 2.42025495e-01, 1.18202977e-01, 1.03042707e-01,
          5.28081656e-02, 2.96528749e-02, 6.82337359e-02, 7.71052912e-02,
          1.99156687e-01, 1.87540829e-01, 1.93377212e-01, 9.31890905e-02,
          9.10232440e-02, 9.11830366e-02, 2.93704383e-02, 3.16251554e-02,
          3.66551466e-02, 7.26682246e-02, 3.40006113e-01, 3.40006113e-01,
          3.40006113e-01, 1.38862833e-01, 8.14463198e-02, 3.33113000e-02,
          3.37038077e-02, 1.02096520e-01, 1.95766374e-01, 3.40006113e-01,
          3.40006113e-01, 1.84772730e-01, 1.09749295e-01, 5.32589704e-02,
          3.67987156e-02, 9.76277590e-02, 1.32779241e-01, 2.51932234e-01,
          2.51932234e-01, 1.96710765e-01, 8.79363716e-02, 8.88006091e-02,
          6.14977702e-02, 6.85142800e-02, 1.23079896e-01, 9.68093053e-02,
          2.51932234e-01, 2.51932234e-01, 2.51932234e-01, 9.82725993e-02,
          7.42987320e-02, 8.23232979e-02, 4.24266830e-02, 6.45744130e-02,
          1.90001115e-01, 2.51932234e-01, 2.51932234e-01, 2.51932234e-01,
          1.80131093e-01, 1.65634573e-01, 5.63784130e-02, 6.67885467e-02,
          1.32063940e-01, 1.26137123e-01, 2.51932234e-01, 2.51932234e-01,
          1.91518694e-01, 1.42549053e-01, 1.49075881e-01, 5.60164712e-02,
          5.49739972e-02, 7.35723227e-02, 3.40871029e-02, 1.66957408e-01,
          1.69425428e-01, 2.53042787e-01, 1.51842639e-01, 6.94346279e-02,
          7.98117593e-02, 6.30054921e-02, 1.04349427e-01, 5.50088696e-02,
          2.53042787e-01, 2.53042787e-01, 2.53042787e-01, 2.53042787e-01,
          1.92998394e-01, 4.83345129e-02, 9.23950151e-02, 1.36577189e-01,
          9.65273157e-02, 1.90925598e-01, 1.55535236e-01, 2.14830786e-01,
          1.28634766e-01, 9.24855322e-02, 1.18705332e-01, 1.31067142e-01,
          1.25717819e-01, 1.14138313e-01, 2.53042787e-01, 2.53042787e-01,
          2.53042787e-01, 2.53042787e-01, 1.77927315e-01, 6.54789358e-02,
          3.09169833e-02, 3.75039615e-02, 2.41213050e-02, 1.44343749e-01,
          1.55249521e-01, 2.63461083e-01, 2.63461083e-01, 1.49484739e-01,
          1.38416365e-01, 6.44408911e-02, 3.56525928e-02, 2.64161117e-02,
          1.62445158e-01, 8.01817998e-02, 2.63461083e-01, 2.63461083e-01,
          2.28288502e-01, 6.83808178e-02, 4.40522805e-02, 3.51723284e-02,
          4.63498570e-02, 1.58542320e-01, 2.41692632e-01, 2.63461083e-01,
          2.63461083e-01, 1.18527301e-01, 1.24542147e-01, 8.08054507e-02,
          7.82516077e-02, 4.43759076e-02, 1.69389725e-01, 1.72184259e-01,
          2.63461083e-01, 2.63461083e-01, 2.47527122e-01, 2.28790566e-01,
          9.29994881e-02, 7.51832873e-02, 8.08266997e-02, 1.53126672e-01,
          7.75959566e-02, 1.08580813e-01, 2.09360585e-01, 1.53657749e-01,
          2.28790566e-01, 1.75778463e-01, 1.25713319e-01, 9.84798074e-02,
          1.52039424e-01, 1.16312273e-01, 1.21812031e-01, 1.26201779e-01,
          2.25718588e-01, 1.99901447e-01, 1.19725183e-01, 1.05057754e-01,
          6.88905269e-02, 1.31900385e-01, 1.10866681e-01, 1.17595159e-01,
          2.06942648e-01, 1.76732868e-01, 2.28790566e-01, 2.28790566e-01,
          2.28790566e-01, 1.25101596e-01, 2.28790566e-01, 1.98636636e-01,
          1.89748526e-01, 2.19627976e-01, 2.28790566e-01, 1.55945152e-01,
          1.11164950e-01, 1.11081265e-01, 3.07622086e-02, 8.27576369e-02,
          8.53365511e-02, 1.04878917e-01, 9.01167840e-02, 1.91637829e-01,
          1.15453899e-01, 1.50164470e-01, 1.35261729e-01, 4.04607207e-02,
          6.62343949e-02, 1.34906337e-01, 2.35495910e-01, 1.39438897e-01,
          1.41260967e-01, 2.35495910e-01, 2.35495910e-01, 2.35495910e-01,
          1.05390050e-01, 2.35495910e-01, 1.84811845e-01, 2.35495910e-01,
          1.79465383e-01, 2.35495910e-01, 2.35495910e-01, 2.35495910e-01,
          2.21158102e-01, 6.38110116e-02, 1.25157326e-01, 1.40469730e-01,
          1.74251705e-01, 9.54749808e-02, 2.35495910e-01, 5.87410182e-02,
          7.75745884e-02, 6.92354739e-02, 7.07924962e-02, 8.03906024e-02,
          1.52374640e-01, 2.58691579e-01, 2.13657796e-01, 8.60610828e-02,
          3.89482640e-02, 1.60524417e-02, 3.26375514e-02, 7.58358613e-02,
          8.74142349e-02, 2.28628397e-01, 2.58691579e-01, 2.30450854e-01,
          5.52026033e-02, 2.14444071e-01, 2.46447459e-01, 9.76536423e-02,
          1.24530286e-01, 1.04592420e-01, 1.64855897e-01, 1.63533121e-01,
          7.51931369e-02, 1.77104339e-01, 1.34791628e-01, 9.62254778e-02,
          1.77425310e-01, 2.58691579e-01, 2.34534264e-01, 2.58691579e-01,
          2.58691579e-01, 2.18095779e-01, 2.02516824e-01, 2.52674948e-02,
          6.04281528e-03, 7.25319702e-03, 7.20895687e-03, 2.37513520e-02,
          1.95295379e-01, 3.84172589e-01, 2.50221997e-01, 3.38562131e-02,
          3.43607515e-02, 1.56353433e-02, 4.31841472e-03, 1.59306023e-02,
          6.44227490e-02, 1.13723293e-01, 3.84172589e-01, 1.68039903e-01,
          4.28297445e-02, 1.69857219e-02, 2.61174468e-03, 8.01820401e-03,
          2.08581183e-02, 3.47375646e-02, 1.89761624e-01, 3.84172589e-01,
          2.87637413e-01, 2.38016769e-02, 2.72039566e-02, 1.58113912e-02,
          6.21076627e-03, 5.44185331e-03, 6.55010566e-02, 1.58059239e-01,
          3.84172589e-01, 3.16236645e-01, 4.54350859e-02, 9.01367739e-02,
          4.51425910e-02, 2.69559510e-02, 6.29420355e-02, 1.55250698e-01,
          2.17078388e-01, 2.07971871e-01, 1.88727945e-01, 1.62368059e-01,
          6.28269687e-02, 4.11483496e-02, 7.68089890e-02, 1.06818214e-01,
          2.64221042e-01, 2.21989065e-01, 1.31502137e-01, 1.76357284e-01,
          1.81827128e-01, 7.23510608e-02, 6.37087077e-02, 4.04662639e-02,
          2.87840981e-02, 1.74059302e-01, 1.66196421e-01, 2.64221042e-01,
          2.64221042e-01, 1.67949155e-01, 1.08616598e-01, 4.73531373e-02,
          7.23605230e-02, 8.10184106e-02, 2.64221042e-01, 2.08465531e-01,
          2.60751367e-01, 2.61432528e-01, 2.63804018e-01, 5.32402731e-02,
          5.63488528e-02, 1.43602148e-01, 1.82200655e-01, 2.40548477e-01,
          1.23171180e-01, 1.27693057e-01, 1.31983742e-01, 1.14593670e-01,
          1.39815852e-01, 9.25051495e-02, 1.24675639e-01, 1.86976984e-01,
          2.25109041e-01, 1.11883990e-01, 1.26292750e-01, 1.25864461e-01,
          1.54327765e-01, 1.69998378e-01, 3.59832533e-02, 8.40538666e-02,
          1.47907749e-01, 2.40548477e-01, 1.59684107e-01, 1.91905901e-01,
          2.23349616e-01, 2.14217424e-01, 2.40548477e-01, 7.64899999e-02,
          1.36135474e-01, 2.01458931e-01, 2.40548477e-01, 2.02514395e-01,
          2.40548477e-01, 1.83351740e-01, 1.79371834e-01, 1.04938075e-01,
          5.93102425e-02, 6.98153898e-02, 1.38586223e-01, 1.36362270e-01,
          1.28242970e-01, 1.23343579e-01, 8.15133303e-02, 1.01098664e-01,
          1.57786399e-01, 1.37097225e-01, 1.02230221e-01, 1.57206789e-01,
          2.14322180e-01, 1.53124884e-01, 1.78774178e-01, 1.60576209e-01,
          1.73040226e-01, 2.24070653e-01, 5.50975762e-02, 1.34118423e-01,
          2.24070653e-01, 2.17450589e-01, 1.82676345e-01, 1.51664928e-01,
          1.19718604e-01, 1.92528218e-01, 2.24070653e-01, 2.00620651e-01,
          2.01511085e-01, 2.24070653e-01, 2.24070653e-01, 2.11694077e-01,
          1.67765975e-01, 1.71702191e-01, 2.13748410e-01, 1.76818311e-01,
          2.08795279e-01, 1.15175955e-01, 1.43313333e-01, 1.55301735e-01,
          8.51677731e-02, 7.07922876e-02, 1.28741190e-01, 1.40078321e-01,
          2.24067554e-01, 2.24067554e-01, 2.24067554e-01, 1.99717194e-01,
          2.24067554e-01, 1.61335960e-01, 1.96882099e-01, 2.03591600e-01,
          2.17032731e-01, 1.74680352e-01, 2.24067554e-01, 1.61535904e-01,
          1.44769102e-01, 2.16475055e-01, 8.45930502e-02, 9.87590104e-02,
          1.41413912e-01, 1.16085403e-01, 1.49268955e-01, 2.24067554e-01,
          1.63137153e-01, 1.02570929e-01, 8.22294429e-02, 9.67449471e-02,
          1.25659168e-01, 1.33467615e-01, 1.95183486e-01, 1.90606594e-01,
          2.48522475e-01, 2.48522475e-01, 1.59406528e-01, 2.15398490e-01,
          1.52048886e-01, 2.27081805e-01, 1.45462096e-01, 2.21228004e-01,
          2.48522475e-01, 2.48522475e-01, 2.23322242e-01, 7.69275650e-02,
          1.32992148e-01, 1.03675954e-01, 1.05216496e-01, 6.67268187e-02,
          2.48522475e-01, 1.05878763e-01, 2.21604407e-01, 1.36546195e-01,
          6.03884943e-02, 8.43100846e-02, 6.39391765e-02, 1.09249972e-01,
          9.15224105e-02, 1.30755514e-01, 1.79423764e-01, 2.37937674e-01,
          1.94155738e-01, 1.03743047e-01, 2.05150008e-01, 6.42086118e-02,
          6.08334877e-02, 7.09017590e-02, 1.12280972e-01, 1.96905524e-01,
          2.33339518e-01, 1.53821409e-01, 1.31709158e-01, 6.26846254e-02,
          8.99096504e-02, 3.93159837e-02, 2.73185167e-02, 1.29959226e-01,
          1.35371432e-01, 9.59067941e-02, 2.84240335e-01, 2.84240335e-01,
          2.29418218e-01, 2.40608290e-01, 1.08098634e-01, 8.33602920e-02,
          1.41687140e-01, 1.00099266e-01, 1.19228050e-01, 2.84240335e-01,
          2.84240335e-01, 1.38403699e-01, 5.91737330e-02, 2.51033213e-02,
          1.39156757e-02, 3.54397148e-02, 4.71429490e-02, 4.44827154e-02,
          2.84240335e-01, 2.84240335e-01, 2.84240335e-01, 1.73297003e-01,
          7.21652880e-02, 1.17251445e-02, 2.96831504e-02, 8.69218167e-03,
          3.87807167e-03, 6.12161076e-03, 1.55430809e-02, 4.08346094e-02,
          9.97421816e-02, 3.93609494e-01, 1.96745709e-01, 1.10068470e-02,
          1.51400073e-02, 1.54632097e-02, 8.95407610e-03, 8.51122383e-03,
          3.99878509e-02, 1.44164860e-01, 3.93609494e-01, 3.02480042e-01,
          2.50014160e-02, 7.82708544e-03, 2.84111779e-03, 2.82545784e-03,
          6.74370257e-03, 3.42313349e-02, 6.50859624e-02, 3.93609494e-01,
          1.56839117e-01, 8.85272957e-03, 1.38516277e-02, 1.44259445e-02,
          1.45565448e-02, 2.07479391e-02, 3.87324095e-02, 1.43772051e-01,
          3.93609494e-01, 3.93609494e-01, 4.54629250e-02, 1.92974973e-02,
          2.45499145e-02, 2.24599540e-02, 2.31198277e-02, 4.29874025e-02,
          1.57234728e-01, 3.51376921e-01, 2.91866332e-01, 6.18465208e-02,
          6.82288259e-02, 4.00676429e-02, 5.24709560e-02, 3.70503031e-02,
          5.57732917e-02, 1.15295038e-01, 2.69281954e-01, 1.37215003e-01,
          1.11340627e-01, 2.80129891e-02, 3.99971902e-02, 3.41264755e-02,
          5.97411804e-02, 8.24709162e-02, 1.75444394e-01, 3.51376921e-01,
          3.51376921e-01, 1.03095904e-01, 9.63973254e-02, 1.22049466e-01,
          1.16194472e-01, 1.09579302e-01, 1.14368983e-01, 1.45741671e-01,
          3.51376921e-01, 3.17581296e-01, 1.19573832e-01, 1.55980185e-01,
          5.57769574e-02, 8.50245655e-02, 1.34126976e-01, 1.46308780e-01,
          1.07403085e-01, 1.32603273e-01, 9.06081349e-02, 1.40217423e-01,
          1.46956488e-01, 8.41991752e-02, 1.70876428e-01, 2.00645015e-01,
          2.28370294e-01, 2.11248368e-01, 2.28370294e-01, 9.36506093e-02,
          1.01003200e-01, 1.43212199e-01, 1.14474475e-01, 1.47965059e-01,
          2.05466479e-01, 1.21803559e-01, 1.94056407e-01, 2.28370294e-01,
          1.53998032e-01, 1.53647259e-01, 7.68350214e-02, 1.55604675e-01,
          1.92805469e-01, 2.28370294e-01, 2.28370294e-01, 2.15203166e-01,
          2.28370294e-01, 1.72506914e-01, 2.26053447e-01, 1.20109029e-01,
          6.70475289e-02, 1.55207813e-01, 1.61620051e-01, 1.85920671e-01,
          2.13959292e-01, 1.55788973e-01, 9.73272175e-02, 1.13937654e-01,
          1.36888936e-01, 1.63855046e-01, 1.71024874e-01, 1.68706954e-01,
          2.18368039e-01, 2.10476875e-01, 1.59057245e-01, 1.31111935e-01,
          1.00642174e-01, 1.02701329e-01, 2.18368039e-01, 1.98600322e-01,
          2.18368039e-01, 2.09409684e-01, 1.24493167e-01, 2.14951351e-01,
          1.39629424e-01, 1.19459309e-01, 2.18368039e-01, 2.18368039e-01,
          1.90032810e-01, 1.77487031e-01, 2.18368039e-01, 9.56002474e-02,
          1.51696667e-01, 1.34140313e-01, 9.06644017e-02, 1.33421779e-01,
          2.20150813e-01, 2.18784124e-01, 1.69861853e-01, 2.20150813e-01,
          1.68870628e-01, 1.67172149e-01, 1.77050591e-01, 1.14077680e-01,
          1.08528517e-01, 1.71531141e-01, 1.80437729e-01, 1.28609702e-01,
          1.32862315e-01, 1.54908821e-01, 1.17120422e-01, 1.63520634e-01,
          1.89880580e-01, 2.10433766e-01, 2.20150813e-01, 1.76404372e-01,
          1.75597340e-01, 1.76605284e-01, 1.32586807e-01, 1.34752184e-01,
          1.31038368e-01, 1.40666932e-01, 1.44694358e-01, 1.87391594e-01,
          2.20150813e-01, 1.92410484e-01, 1.79005206e-01, 1.54398084e-01,
          1.18767105e-01, 1.16757520e-01, 1.15392819e-01, 1.00475580e-01,
          1.10703781e-01, 1.22500330e-01, 6.91881925e-02, 1.64137468e-01,
          8.82198885e-02, 8.59058350e-02, 1.18457682e-01, 9.62371156e-02,
          1.53441474e-01, 1.66973606e-01, 3.03946823e-01, 2.87973464e-01,
          3.03946823e-01, 7.75849745e-02, 7.47158006e-02, 8.84279907e-02,
          6.60051778e-02, 1.39126062e-01, 1.71402946e-01, 1.85132697e-01,
          1.45323128e-01, 2.30960116e-01, 6.71967193e-02, 7.50390366e-02,
          8.99723843e-02, 4.58438061e-02, 9.20074582e-02, 1.77984491e-01,
          3.03946823e-01, 3.03946823e-01, 3.03946823e-01, 1.21313140e-01,
          1.42566860e-01, 1.22133009e-01, 3.81535776e-02, 4.90410291e-02,
          5.73942922e-02, 3.08047771e-01, 3.08047771e-01, 1.46141201e-01,
          3.40033770e-02, 2.09501646e-02, 7.33904773e-03, 9.50645655e-03,
          1.61172766e-02, 2.11730506e-02, 3.08047771e-01, 3.08047771e-01,
          2.37245783e-01, 9.64713395e-02, 3.66141684e-02, 1.05783790e-02,
          8.25919397e-03, 1.56808738e-02, 4.47206572e-02, 3.08047771e-01,
          3.08047771e-01, 2.44581535e-01, 9.37626809e-02, 5.00890724e-02,
          3.76183763e-02, 8.17504060e-03, 2.01188996e-02, 2.48819869e-02,
          2.87805796e-01, 3.08047771e-01, 2.17962295e-01, 1.55995473e-01,
          3.84543091e-02, 5.14873192e-02, 3.70804220e-02 ]
      - [ 2.24334463e-01, 1.33848280e-01, 1.51193365e-01, 5.17895669e-02,
          2.60911614e-01, 3.08559649e-02, 7.70272836e-02, 5.51826730e-02,
          2.21111491e-01, 1.75054729e-01, 1.13717936e-01, 1.29188702e-01,
          3.23837511e-02, 2.68264234e-01, 7.84501582e-02, 1.03957795e-01,
          4.39345017e-02, 1.65897682e-01, 2.68264234e-01, 2.64889151e-01,
          1.07056767e-01, 1.76642075e-01, 2.29987577e-01, 3.44576649e-02,
          7.23886415e-02, 2.44749114e-01, 2.68264234e-01, 2.14103594e-01,
          1.70713097e-01, 8.29082280e-02, 7.32261315e-02, 2.68264234e-01,
          5.39923273e-02, 1.27302885e-01, 6.48847893e-02, 1.96075290e-01,
          8.35547969e-02, 2.70371549e-02, 2.56624594e-02, 1.59325229e-03,
          1.68116838e-01, 2.72676516e-02, 3.65742147e-02, 4.13076207e-02,
          8.66712108e-02, 8.59428123e-02, 5.25158942e-02, 3.94623756e-01,
